{"learner":{"attributes":{"scikit_learn":"{\"_estimator_type\": \"regressor\"}"},"feature_names":[],"feature_types":[],"gradient_booster":{"model":{"cats":{"enc":[],"feature_segments":[],"sorted_idx":[]},"gbtree_model_param":{"num_parallel_tree":"1","num_trees":"100"},"iteration_indptr":[0,1,2,3,4,5,6,7,8,9,10,11,12,13,14,15,16,17,18,19,20,21,22,23,24,25,26,27,28,29,30,31,32,33,34,35,36,37,38,39,40,41,42,43,44,45,46,47,48,49,50,51,52,53,54,55,56,57,58,59,60,61,62,63,64,65,66,67,68,69,70,71,72,73,74,75,76,77,78,79,80,81,82,83,84,85,86,87,88,89,90,91,92,93,94,95,96,97,98,99,100],"tree_info":[0,0,0,0,0,0,0,0,0,0,0,0,0,0,0,0,0,0,0,0,0,0,0,0,0,0,0,0,0,0,0,0,0,0,0,0,0,0,0,0,0,0,0,0,0,0,0,0,0,0,0,0,0,0,0,0,0,0,0,0,0,0,0,0,0,0,0,0,0,0,0,0,0,0,0,0,0,0,0,0,0,0,0,0,0,0,0,0,0,0,0,0,0,0,0,0,0,0,0,0],"trees":[{"base_weights":[-1.3987224E-5,-7.710001E0,7.269415E1,6.5047874E1,-1.34532175E1,8.792487E1,-9.345078E-1,6.6549224E-1,7.7982383E0,-3.252758E1,1.0870208E1,-2.3450775E-1,1.0644788E1,-4.2151766E0,3.3647878E0,5.0422525E0,-3.2283714E0],"categories":[],"categories_nodes":[],"categories_segments":[],"categories_sizes":[],"default_left":[0,0,0,0,0,0,0,0,0,0,0,0,0,0,0,0,0],"id":0,"left_children":[1,3,5,7,9,11,-1,-1,-1,13,15,-1,-1,-1,-1,-1,-1],"loss_changes":[4.091439E4,2.8454139E4,9.568281E3,3.2574531E3,2.9118719E4,1.0282051E4,0E0,0E0,0E0,2.3709281E4,4.9419277E4,0E0,0E0,0E0,0E0,0E0,0E0],"parents":[2147483647,0,0,1,1,2,2,3,3,4,4,5,5,9,9,10,10],"right_children":[2,4,6,8,10,12,-1,-1,-1,14,16,-1,-1,-1,-1,-1,-1],"split_conditions":[1.76E0,5.39026E1,2.95156E5,7.55E2,4.11405E3,2.11226E5,-9.345078E-1,6.6549224E-1,7.7982383E0,6.766E-1,4.39837E5,-2.3450775E-1,1.0644788E1,-4.2151766E0,3.3647878E0,5.0422525E0,-3.2283714E0],"split_indices":[7,10,0,1,5,0,0,0,0,9,6,0,0,0,0,0,0],"split_type":[0,0,0,0,0,0,0,0,0,0,0,0,0,0,0,0,0],"sum_hessian":[7.1E1,6.5E1,6E0,4E0,6.1E1,5E0,1E0,1E0,3E0,3.4E1,2.7E1,1E0,4E0,3E1,4E0,1.4E1,1.3E1],"tree_param":{"num_deleted":"0","num_feature":"11","num_nodes":"17","size_leaf_vector":"1"}},{"base_weights":[2.6252663E-1,-2.353942E1,2.100621E1,-4.1181835E1,1.2236832E1,-2.7840178E0,6.368762E1,-7.0532227E0,-6.261786E1,3.3494972E1,-2.422356E1,8.123998E0,-2.1753832E1,1.0161734E1,1.1241141E1,-4.0121408E0,5.257941E0,-3.0853317E0,-8.9974785E0,-1.0136861E0,4.9728394E0,-8.9745283E-1,-3.1398072E0,-5.9127843E-1,-7.4430842E0,2.6524963E0,-4.02309E0],"categories":[],"categories_nodes":[],"categories_segments":[],"categories_sizes":[],"default_left":[0,0,0,0,0,0,0,0,0,0,0,0,0,0,0,0,0,0,0,0,0,0,0,0,0,0,0],"id":1,"left_children":[1,3,5,7,9,11,13,15,17,19,21,-1,23,-1,25,-1,-1,-1,-1,-1,-1,-1,-1,-1,-1,-1,-1],"loss_changes":[3.6043758E4,2.1964035E4,3.977792E4,1.6384723E4,1.0112329E4,4.3209188E4,2.6707621E4,2.1828988E4,9.389703E3,6.1704414E3,2.65239E2,0E0,1.7918006E4,0E0,6.573949E3,0E0,0E0,0E0,0E0,0E0,0E0,0E0,0E0,0E0,0E0,0E0,0E0],"parents":[2147483647,0,0,1,1,2,2,3,3,4,4,5,5,6,6,7,7,8,8,9,9,10,10,12,12,14,14],"right_children":[2,4,6,8,10,12,14,16,18,20,22,-1,24,-1,26,-1,-1,-1,-1,-1,-1,-1,-1,-1,-1,-1,-1],"split_conditions":[1.63E0,6.579E-1,7.29166E1,5.4E2,2.78618E5,5.6379E1,8.3304E1,2.14697E5,4.894E-1,3.63944E3,1.54E0,8.123998E0,5.61E2,1.0161734E1,5.98E2,-4.0121408E0,5.257941E0,-3.0853317E0,-8.9974785E0,-1.0136861E0,4.9728394E0,-8.9745283E-1,-3.1398072E0,-5.9127843E-1,-7.4430842E0,2.6524963E0,-4.02309E0],"split_indices":[7,9,10,2,0,10,10,0,8,5,7,0,2,0,2,0,0,0,0,0,0,0,0,0,0,0,0],"split_type":[0,0,0,0,0,0,0,0,0,0,0,0,0,0,0,0,0,0,0,0,0,0,0,0,0,0,0],"sum_hessian":[7.1E1,3.3E1,3.8E1,2.2E1,1.1E1,2.5E1,1.3E1,9E0,1.3E1,7E0,4E0,4E0,2.1E1,7E0,6E0,6E0,3E0,7E0,6E0,2E0,5E0,2E0,2E0,1.7E1,4E0,5E0,1E0],"tree_param":{"num_deleted":"0","num_feature":"11","num_nodes":"27","size_leaf_vector":"1"}},{"base_weights":[2.0801756E-1,-6.555301E0,6.3946735E1,5.5564167E1,-1.1459205E1,7.632328E1,-5.1562804E-1,6.82901E-1,6.60407E0,-2.3938248E1,1.5943697E1,-1.9321899E-1,9.236082E0,-4.8488793E0,-1.1683385E0,-2.8486054E0,4.793737E0],"categories":[],"categories_nodes":[],"categories_segments":[],"categories_sizes":[],"default_left":[0,0,0,0,0,0,0,0,0,0,0,0,0,0,0,0,0],"id":2,"left_children":[1,3,5,7,9,11,-1,-1,-1,13,15,-1,-1,-1,-1,-1,-1],"loss_changes":[3.1457328E4,2.0742162E4,6.3803438E3,2.1018867E3,2.1583307E4,7.7086055E3,0E0,0E0,0E0,1.2370617E4,2.9794963E4,0E0,0E0,0E0,0E0,0E0,0E0],"parents":[2147483647,0,0,1,1,2,2,3,3,4,4,5,5,9,9,10,10],"right_children":[2,4,6,8,10,12,-1,-1,-1,14,16,-1,-1,-1,-1,-1,-1],"split_conditions":[1.76E0,5.39026E1,2.95156E5,7.55E2,7.34582E1,2.11226E5,-5.1562804E-1,6.82901E-1,6.60407E0,5.052E-1,1.62E0,-1.9321899E-1,9.236082E0,-4.8488793E0,-1.1683385E0,-2.8486054E0,4.793737E0],"split_indices":[7,10,0,1,10,0,0,0,0,8,7,0,0,0,0,0,0],"split_type":[0,0,0,0,0,0,0,0,0,0,0,0,0,0,0,0,0],"sum_hessian":[7.1E1,6.5E1,6E0,4E0,6.1E1,5E0,1E0,1E0,3E0,4.2E1,1.9E1,1E0,4E0,1.3E1,2.9E1,8E0,1.1E1],"tree_param":{"num_deleted":"0","num_feature":"11","num_nodes":"17","size_leaf_vector":"1"}},{"base_weights":[3.5030025E-1,-5.851062E0,5.877024E1,-8.097927E0,-2.2380042E0,7.0198105E1,-4.898468E-1,4.916943E1,-7.4279466E0,-1.8355866E-1,8.497196E0,6.4875644E-1,5.6408286E0,-1.8179514E0,1.4446585E0],"categories":[],"categories_nodes":[],"categories_segments":[],"categories_sizes":[],"default_left":[0,0,0,0,0,0,0,0,0,0,0,0,0,0,0],"id":3,"left_children":[1,3,5,-1,7,9,-1,11,13,-1,-1,-1,-1,-1,-1],"loss_changes":[2.6428258E4,1.7733977E4,5.437043E3,0E0,1.744053E4,6.5412676E3,0E0,1.4878555E3,1.4138576E4,0E0,0E0,0E0,0E0,0E0,0E0],"parents":[2147483647,0,0,1,1,2,2,4,4,5,5,7,7,8,8],"right_children":[2,4,6,-1,8,10,-1,12,14,-1,-1,-1,-1,-1,-1],"split_conditions":[1.76E0,1.41E0,2.95156E5,-8.097927E0,5.49081E1,2.11226E5,-4.898468E-1,7.55E2,7.34582E1,-1.8355866E-1,8.497196E0,6.4875644E-1,5.6408286E0,-1.8179514E0,1.4446585E0],"split_indices":[7,7,0,0,10,0,0,1,10,0,0,0,0,0,0],"split_type":[0,0,0,0,0,0,0,0,0,0,0,0,0,0,0],"sum_hessian":[7.1E1,6.5E1,6E0,2E0,6.3E1,5E0,1E0,5E0,5.8E1,1E0,4E0,1E0,4E0,3.9E1,1.9E1],"tree_param":{"num_deleted":"0","num_feature":"11","num_nodes":"15","size_leaf_vector":"1"}},{"base_weights":[3.9363608E-1,-5.299008E0,5.4010902E1,-7.558065E0,-1.9217591E0,6.45639E1,-4.6535492E-1,7.688326E0,-2.8943071E1,-1.743805E-1,7.817421E0,-4.676201E-1,6.1787524E0,-2.612166E-1,-6.618549E0],"categories":[],"categories_nodes":[],"categories_segments":[],"categories_sizes":[],"default_left":[0,0,0,0,0,0,0,0,0,0,0,0,0,0,0],"id":4,"left_children":[1,3,5,-1,7,9,-1,11,13,-1,-1,-1,-1,-1,-1],"loss_changes":[2.2262334E4,1.5520418E4,4.6340527E3,0E0,1.6841861E4,5.551131E3,0E0,3.2396656E4,1.6497762E4,0E0,0E0,0E0,0E0,0E0,0E0],"parents":[2147483647,0,0,1,1,2,2,4,4,5,5,7,7,8,8],"right_children":[2,4,6,-1,8,10,-1,12,14,-1,-1,-1,-1,-1,-1],"split_conditions":[1.76E0,1.41E0,2.95156E5,-7.558065E0,5.299E-1,2.11226E5,-4.6535492E-1,5.201E-1,4.49168E5,-1.743805E-1,7.817421E0,-4.676201E-1,6.1787524E0,-2.612166E-1,-6.618549E0],"split_indices":[7,7,0,0,8,0,0,8,6,0,0,0,0,0,0],"split_type":[0,0,0,0,0,0,0,0,0,0,0,0,0,0,0],"sum_hessian":[7.1E1,6.5E1,6E0,2E0,6.3E1,5E0,1E0,4.7E1,1.6E1,1E0,4E0,3.9E1,8E0,1E1,6E0],"tree_param":{"num_deleted":"0","num_feature":"11","num_nodes":"15","size_leaf_vector":"1"}},{"base_weights":[3.3276156E-1,-1.890818E1,1.5341965E1,1.3821872E1,-3.6710674E1,-2.3837967E0,4.9697636E1,-1.8985909E1,8.418391E0,-5.246238E1,-4.5563583E0,5.4933514E1,-1.7232494E1,8.190061E0,5.794582E0,-3.3320081E0,2.0789135E0,-2.454594E0,-7.033147E0,3.8374329E0,-1.617136E0,6.1234984E0,1.1713074E0,-4.1105253E-1,-6.3649483E0,-9.3910784E-1,4.845427E0],"categories":[],"categories_nodes":[],"categories_segments":[],"categories_sizes":[],"default_left":[0,0,0,0,0,0,0,0,0,0,0,0,0,0,0,0,0,0,0,0,0,0,0,0,0,0,0],"id":5,"left_children":[1,3,5,7,9,11,13,15,-1,17,19,21,23,-1,25,-1,-1,-1,-1,-1,-1,-1,-1,-1,-1,-1,-1],"loss_changes":[2.1083055E4,1.9153062E4,2.5086664E4,2.9299373E4,1.0397152E4,2.477709E4,1.9318742E4,5.8239766E3,0E0,5.2574297E3,4.6096855E3,9.1686523E2,1.374726E4,0E0,4.989746E3,0E0,0E0,0E0,0E0,0E0,0E0,0E0,0E0,0E0,0E0,0E0,0E0],"parents":[2147483647,0,0,1,1,2,2,3,3,4,4,5,5,6,6,7,7,9,9,10,10,11,11,12,12,14,14],"right_children":[2,4,6,8,10,12,14,16,-1,18,20,22,24,-1,26,-1,-1,-1,-1,-1,-1,-1,-1,-1,-1,-1,-1],"split_conditions":[1.62E0,5.36E2,7.29166E1,2.14697E5,6.579E-1,5.66024E1,8.3304E1,6.398E-1,8.418391E0,4.894E-1,5.097E-1,5.49E2,5.61E2,8.190061E0,3.38588E5,-3.3320081E0,2.0789135E0,-2.454594E0,-7.033147E0,3.8374329E0,-1.617136E0,6.1234984E0,1.1713074E0,-4.1105253E-1,-6.3649483E0,-9.3910784E-1,4.845427E0],"split_indices":[7,2,10,0,9,10,10,9,0,8,8,2,2,0,0,0,0,0,0,0,0,0,0,0,0,0,0],"split_type":[0,0,0,0,0,0,0,0,0,0,0,0,0,0,0,0,0,0,0,0,0,0,0,0,0,0,0],"sum_hessian":[7.1E1,3.1E1,4E1,1.1E1,2E1,2.7E1,1.3E1,8E0,3E0,1.3E1,7E0,5E0,2.2E1,7E0,6E0,6E0,2E0,6E0,7E0,1E0,6E0,4E0,1E0,1.8E1,4E0,5E0,1E0],"tree_param":{"num_deleted":"0","num_feature":"11","num_nodes":"27","size_leaf_vector":"1"}},{"base_weights":[4.7327593E-1,-1.702056E1,1.4115458E1,1.3036786E1,-3.338568E1,-2.126891E0,4.5591908E1,-1.7226555E1,7.787011E0,-4.789384E1,-3.8231926E0,5.065597E1,-1.580386E1,7.4734316E0,5.7731757E0,-3.0464082E0,1.940319E0,-2.2442005E0,-6.4177475E0,1.5959003E0,-2.7595139E0,5.6336193E0,1.1127427E0,-3.721116E-1,-5.8557515E0,1.9255275E0,-3.7559707E0],"categories":[],"categories_nodes":[],"categories_segments":[],"categories_sizes":[],"default_left":[0,0,0,0,0,0,0,0,0,0,0,0,0,0,0,0,0,0,0,0,0,0,0,0,0,0,0],"id":6,"left_children":[1,3,5,7,9,11,13,15,-1,17,19,21,23,-1,25,-1,-1,-1,-1,-1,-1,-1,-1,-1,-1,-1,-1],"loss_changes":[1.7423348E4,1.6175792E4,2.105828E4,2.488631E4,8.823736E3,2.1014027E4,1.5814338E4,4.9550845E3,0E0,4.362006E3,4.202481E3,7.203096E2,1.1663475E4,0E0,4.8127495E3,0E0,0E0,0E0,0E0,0E0,0E0,0E0,0E0,0E0,0E0,0E0,0E0],"parents":[2147483647,0,0,1,1,2,2,3,3,4,4,5,5,6,6,7,7,9,9,10,10,11,11,12,12,14,14],"right_children":[2,4,6,8,10,12,14,16,-1,18,20,22,24,-1,26,-1,-1,-1,-1,-1,-1,-1,-1,-1,-1,-1,-1],"split_conditions":[1.62E0,5.36E2,7.29166E1,2.14697E5,6.579E-1,5.66024E1,8.3304E1,6.398E-1,7.787011E0,4.894E-1,6.762E-1,5.49E2,5.61E2,7.4734316E0,5.98E2,-3.0464082E0,1.940319E0,-2.2442005E0,-6.4177475E0,1.5959003E0,-2.7595139E0,5.6336193E0,1.1127427E0,-3.721116E-1,-5.8557515E0,1.9255275E0,-3.7559707E0],"split_indices":[7,2,10,0,9,10,10,9,0,8,9,2,2,0,2,0,0,0,0,0,0,0,0,0,0,0,0],"split_type":[0,0,0,0,0,0,0,0,0,0,0,0,0,0,0,0,0,0,0,0,0,0,0,0,0,0,0],"sum_hessian":[7.1E1,3.1E1,4E1,1.1E1,2E1,2.7E1,1.3E1,8E0,3E0,1.3E1,7E0,5E0,2.2E1,7E0,6E0,6E0,2E0,6E0,7E0,4E0,3E0,4E0,1E0,1.8E1,4E0,5E0,1E0],"tree_param":{"num_deleted":"0","num_feature":"11","num_nodes":"27","size_leaf_vector":"1"}},{"base_weights":[4.6784803E-1,-4.3100634E0,4.544989E1,-2.8708666E1,2.2161727E0,-1.2650453E-1,5.3446552E1,5.7756042E0,-5.529382E1,7.2994523E0,-5.0513353E0,6.3460073E0,1.6894837E-1,-1.2438233E0,2.254554E0,-1.3163239E0,-6.7143474E0,-1.8306373E0,1.204832E0],"categories":[],"categories_nodes":[],"categories_segments":[],"categories_sizes":[],"default_left":[0,0,0,0,0,0,0,0,0,0,0,0,0,0,0,0,0,0,0],"id":7,"left_children":[1,3,5,7,9,-1,11,13,15,-1,17,-1,-1,-1,-1,-1,-1,-1,-1],"loss_changes":[1.56701455E4,1.0572872E4,2.6825596E3,1.3154131E4,2.7630979E4,0E0,3.0024062E3,2.4185408E3,3.110037E3,0E0,1.1326734E4,0E0,0E0,0E0,0E0,0E0,0E0,0E0,0E0],"parents":[2147483647,0,0,1,1,2,2,3,3,4,4,6,6,7,7,8,8,10,10],"right_children":[2,4,6,8,10,-1,12,14,16,-1,18,-1,-1,-1,-1,-1,-1,-1,-1],"split_conditions":[1.76E0,2.16562E5,2.11226E5,3.26971E5,2.26307E5,-1.2650453E-1,2.95156E5,4.91E2,5.28E2,7.2994523E0,4.09962E5,6.3460073E0,1.6894837E-1,-1.2438233E0,2.254554E0,-1.3163239E0,-6.7143474E0,-1.8306373E0,1.204832E0],"split_indices":[7,0,0,6,0,0,0,2,2,0,6,0,0,0,0,0,0,0,0],"split_type":[0,0,0,0,0,0,0,0,0,0,0,0,0,0,0,0,0,0,0],"sum_hessian":[7.1E1,6.5E1,6E0,1.3E1,5.2E1,1E0,5E0,6E0,7E0,4E0,4.8E1,4E0,1E0,3E0,3E0,2E0,5E0,2.7E1,2.1E1],"tree_param":{"num_deleted":"0","num_feature":"11","num_nodes":"19","size_leaf_vector":"1"}},{"base_weights":[5.049786E-1,-1.4819217E1,1.245301E1,1.1634987E1,-2.9230228E1,-1.8817389E0,4.0233006E1,-1.4066799E1,6.655526E0,-4.184406E1,-3.5022469E0,9.059329E0,-5.4022514E1,6.661439E0,4.3352838E0,-2.5203006E0,1.6606619E0,-1.9118893E0,-5.649807E0,3.6572983E0,-1.4451991E0,-4.6386358E-1,7.870881E0,-6.833065E0,1.6050111E-1,-9.764293E-1,4.446637E0],"categories":[],"categories_nodes":[],"categories_segments":[],"categories_sizes":[],"default_left":[0,0,0,0,0,0,0,0,0,0,0,0,0,0,0,0,0,0,0,0,0,0,0,0,0,0,0],"id":8,"left_children":[1,3,5,7,9,11,13,15,-1,17,19,21,23,-1,25,-1,-1,-1,-1,-1,-1,-1,-1,-1,-1,-1,-1],"loss_changes":[1.336731E4,1.253951E4,1.64027E4,1.7874809E4,6.668547E3,1.6462729E4,1.2969646E4,3.4928066E3,0E0,3.5820293E3,4.0390605E3,2.3262447E4,4.0893018E3,0E0,4.3950015E3,0E0,0E0,0E0,0E0,0E0,0E0,0E0,0E0,0E0,0E0,0E0,0E0],"parents":[2147483647,0,0,1,1,2,2,3,3,4,4,5,5,6,6,7,7,9,9,10,10,11,11,12,12,14,14],"right_children":[2,4,6,8,10,12,14,16,-1,18,20,22,24,-1,26,-1,-1,-1,-1,-1,-1,-1,-1,-1,-1,-1,-1],"split_conditions":[1.62E0,5.36E2,7.29166E1,2.14697E5,6.579E-1,5.61E2,8.3304E1,6.398E-1,6.655526E0,4.894E-1,5.097E-1,4.06843E5,1.72E0,6.661439E0,3.38588E5,-2.5203006E0,1.6606619E0,-1.9118893E0,-5.649807E0,3.6572983E0,-1.4451991E0,-4.6386358E-1,7.870881E0,-6.833065E0,1.6050111E-1,-9.764293E-1,4.446637E0],"split_indices":[7,2,10,0,9,2,10,9,0,8,8,6,7,0,0,0,0,0,0,0,0,0,0,0,0,0,0],"split_type":[0,0,0,0,0,0,0,0,0,0,0,0,0,0,0,0,0,0,0,0,0,0,0,0,0,0,0],"sum_hessian":[7.1E1,3.1E1,4E1,1.1E1,2E1,2.7E1,1.3E1,8E0,3E0,1.3E1,7E0,2.3E1,4E0,7E0,6E0,6E0,2E0,6E0,7E0,1E0,6E0,2E1,3E0,3E0,1E0,5E0,1E0],"tree_param":{"num_deleted":"0","num_feature":"11","num_nodes":"27","size_leaf_vector":"1"}},{"base_weights":[6.1159855E-1,-3.5847862E0,4.009014E1,3.477288E1,-6.6203275E0,-9.698639E-2,4.709512E1,2.3265839E-1,4.2302814E0,-2.2495796E1,3.9982798E0,5.5904236E0,1.524765E-1,-5.7904577E0,-8.266468E-1,1.7277796E0,-2.2868314E0],"categories":[],"categories_nodes":[],"categories_segments":[],"categories_sizes":[],"default_left":[0,0,0,0,0,0,0,0,0,0,0,0,0,0,0,0,0],"id":9,"left_children":[1,3,5,7,9,-1,11,-1,-1,13,15,-1,-1,-1,-1,-1,-1],"loss_changes":[1.207175E4,7.915003E3,2.059045E3,1.1231709E3,1.0541618E4,0E0,2.3233662E3,0E0,0E0,1.2117413E4,1.3952576E4,0E0,0E0,0E0,0E0,0E0,0E0],"parents":[2147483647,0,0,1,1,2,2,3,3,4,4,6,6,9,9,10,10],"right_children":[2,4,6,8,10,-1,12,-1,-1,14,16,-1,-1,-1,-1,-1,-1],"split_conditions":[1.76E0,5.39026E1,2.11226E5,7.55E2,6.56434E1,-9.698639E-2,2.95156E5,2.3265839E-1,4.2302814E0,5.052E-1,4.39837E5,5.5904236E0,1.524765E-1,-5.7904577E0,-8.266468E-1,1.7277796E0,-2.2868314E0],"split_indices":[7,10,0,1,10,0,0,0,0,8,6,0,0,0,0,0,0],"split_type":[0,0,0,0,0,0,0,0,0,0,0,0,0,0,0,0,0],"sum_hessian":[7.1E1,6.5E1,6E0,4E0,6.1E1,1E0,5E0,1E0,3E0,2.4E1,3.7E1,4E0,1E0,6E0,1.8E1,2.5E1,1.2E1],"tree_param":{"num_deleted":"0","num_feature":"11","num_nodes":"17","size_leaf_vector":"1"}},{"base_weights":[5.9117424E-1,-3.267414E0,3.6887695E1,2.8898315E0,-2.118476E1,-9.213715E-2,4.334277E1,-4.984269E0,4.4851894E1,-7.733033E0,-8.543326E0,5.143191E0,1.4485322E-1,-1.5963223E0,2.8405707E0,-8.806793E-1,5.3775535E0,1.1651795E0,-4.0777974E0],"categories":[],"categories_nodes":[],"categories_segments":[],"categories_sizes":[],"default_left":[0,0,0,0,0,0,0,0,0,0,0,0,0,0,0,0,0,0,0],"id":10,"left_children":[1,3,5,7,9,-1,11,13,15,-1,17,-1,-1,-1,-1,-1,-1,-1,-1],"loss_changes":[1.0204366E4,7.3424385E3,1.7483574E3,1.6744229E4,1.140527E4,0E0,1.9588291E3,1.62166875E4,4.3042363E3,0E0,1.0239877E4,0E0,0E0,0E0,0E0,0E0,0E0,0E0,0E0],"parents":[2147483647,0,0,1,1,2,2,3,3,4,4,6,6,7,7,8,8,10,10],"right_children":[2,4,6,8,10,-1,12,14,16,-1,18,-1,-1,-1,-1,-1,-1,-1,-1],"split_conditions":[1.76E0,5.299E-1,2.11226E5,5.247E-1,6.476E-1,-9.213715E-2,2.95156E5,4.25672E3,2.1376E5,-7.733033E0,4.49168E5,5.143191E0,1.4485322E-1,-1.5963223E0,2.8405707E0,-8.806793E-1,5.3775535E0,1.1651795E0,-4.0777974E0],"split_indices":[7,8,0,8,9,0,0,5,0,0,6,0,0,0,0,0,0,0,0],"split_type":[0,0,0,0,0,0,0,0,0,0,0,0,0,0,0,0,0,0,0],"sum_hessian":[7.1E1,6.5E1,6E0,4.9E1,1.6E1,1E0,5E0,4.2E1,7E0,2E0,1.4E1,4E0,1E0,3.2E1,1E1,1E0,6E0,9E0,5E0],"tree_param":{"num_deleted":"0","num_feature":"11","num_nodes":"19","size_leaf_vector":"1"}},{"base_weights":[5.360959E-1,-1.2202462E1,1.046531E1,1.0815518E1,-2.4774525E1,-1.5741425E0,3.379669E1,-1.113818E1,5.7507463E0,-5.918232E0,-1.5751986E1,3.9302099E0,-1.2169068E1,5.543171E1,4.242859E0,-2.0744686E0,1.4989727E0,-6.4849377E-1,-5.992558E0,-2.3668213E-1,-4.6983795E0,6.27722E0,2.22735E0,-9.317958E-1,4.280388E0],"categories":[],"categories_nodes":[],"categories_segments":[],"categories_sizes":[],"default_left":[0,0,0,0,0,0,0,0,0,0,0,0,0,0,0,0,0,0,0,0,0,0,0,0,0],"id":11,"left_children":[1,3,5,7,9,11,13,15,-1,-1,17,-1,19,21,23,-1,-1,-1,-1,-1,-1,-1,-1,-1,-1],"loss_changes":[9.234542E3,9.528221E3,1.156998E4,1.2941259E4,5.587119E3,1.2604531E4,8.716379E3,2.569938E3,0E0,0E0,6.9798447E3,0E0,7.737836E3,5.4902344E2,4.059277E3,0E0,0E0,0E0,0E0,0E0,0E0,0E0,0E0,0E0,0E0],"parents":[2147483647,0,0,1,1,2,2,3,3,4,4,5,5,6,6,7,7,10,10,12,12,13,13,14,14],"right_children":[2,4,6,8,10,12,14,16,-1,-1,18,-1,20,22,24,-1,-1,-1,-1,-1,-1,-1,-1,-1,-1],"split_conditions":[1.62E0,5.36E2,7.29166E1,2.14697E5,2.16562E5,5.66024E1,8.3304E1,6.398E-1,5.7507463E0,-5.918232E0,7.90821E1,3.9302099E0,5.61E2,7.75985E1,3.38588E5,-2.0744686E0,1.4989727E0,-6.4849377E-1,-5.992558E0,-2.3668213E-1,-4.6983795E0,6.27722E0,2.22735E0,-9.317958E-1,4.280388E0],"split_indices":[7,2,10,0,0,10,10,9,0,0,10,0,2,10,0,0,0,0,0,0,0,0,0,0,0],"split_type":[0,0,0,0,0,0,0,0,0,0,0,0,0,0,0,0,0,0,0,0,0,0,0,0,0],"sum_hessian":[7.1E1,3.1E1,4E1,1.1E1,2E1,2.7E1,1.3E1,8E0,3E0,3E0,1.7E1,5E0,2.2E1,7E0,6E0,6E0,2E0,1.5E1,2E0,1.8E1,4E0,5E0,2E0,5E0,1E0],"tree_param":{"num_deleted":"0","num_feature":"11","num_nodes":"25","size_leaf_vector":"1"}},{"base_weights":[5.306045E-1,-2.9109364E0,3.2903618E1,-9.677432E0,1.1061938E1,-7.5695805E-2,3.8639874E1,-8.444082E-1,-4.4915703E1,5.43324E1,-1.7544926E1,4.4877734E0,3.7252808E-1,1.7046499E0,-1.6904004E0,-2.1110828E0,-5.973744E0,1.3858246E0,6.3916698E0,3.008021E0,-2.7989135E0],"categories":[],"categories_nodes":[],"categories_segments":[],"categories_sizes":[],"default_left":[0,0,0,0,0,0,0,0,0,0,0,0,0,0,0,0,0,0,0,0,0],"id":12,"left_children":[1,3,5,7,9,-1,11,13,15,17,19,-1,-1,-1,-1,-1,-1,-1,-1,-1,-1],"loss_changes":[8.117519E3,6.3471787E3,1.3808481E3,1.3968797E4,2.8185566E4,0E0,1.1395732E3,1.0919021E4,1.9143594E3,2.6054727E3,7.8056143E3,0E0,0E0,0E0,0E0,0E0,0E0,0E0,0E0,0E0,0E0],"parents":[2147483647,0,0,1,1,2,2,3,3,4,4,6,6,7,7,8,8,9,9,10,10],"right_children":[2,4,6,8,10,-1,12,14,16,18,20,-1,-1,-1,-1,-1,-1,-1,-1,-1,-1],"split_conditions":[1.76E0,4.09962E5,2.11226E5,1.7E0,4.4103E5,-7.5695805E-2,2.95156E5,5.36E2,3.93296E3,9.23E2,4.853E-1,4.4877734E0,3.7252808E-1,1.7046499E0,-1.6904004E0,-2.1110828E0,-5.973744E0,1.3858246E0,6.3916698E0,3.008021E0,-2.7989135E0],"split_indices":[7,6,0,7,6,0,0,2,5,1,8,0,0,0,0,0,0,0,0,0,0],"split_type":[0,0,0,0,0,0,0,0,0,0,0,0,0,0,0,0,0,0,0,0,0],"sum_hessian":[7.1E1,6.5E1,6E0,4.4E1,2.1E1,1E0,5E0,3.6E1,8E0,8E0,1.3E1,4E0,1E0,1.7E1,1.9E1,4E0,4E0,2E0,6E0,2E0,1.1E1],"tree_param":{"num_deleted":"0","num_feature":"11","num_nodes":"21","size_leaf_vector":"1"}},{"base_weights":[5.4283184E-1,-2.0007732E1,5.8482738E0,-4.023085E0,-5.1172414E0,5.38825E0,1.2923595E0,-1.4639064E1,1.1643903E1,-2.9332268E0,3.5585922E1,-2.1461487E-2,-1.700737E0,-2.028127E-1,2.1434631E0,-1.3240758E0,1.0318778E0,4.540114E0,1.0636994E0],"categories":[],"categories_nodes":[],"categories_segments":[],"categories_sizes":[],"default_left":[0,0,0,0,0,0,0,0,0,0,0,0,0,0,0,0,0,0,0],"id":13,"left_children":[1,3,5,7,-1,-1,9,11,13,15,17,-1,-1,-1,-1,-1,-1,-1,-1],"loss_changes":[7.9671587E3,7.2664756E3,1.2623072E4,1.9999802E3,0E0,0E0,7.929544E3,2.3548059E2,7.127677E2,6.8298047E3,9.8634326E2,0E0,0E0,0E0,0E0,0E0,0E0,0E0,0E0],"parents":[2147483647,0,0,1,1,2,2,3,3,6,6,7,7,8,8,9,9,10,10],"right_children":[2,4,6,8,-1,-1,10,12,14,16,18,-1,-1,-1,-1,-1,-1,-1,-1],"split_conditions":[2.16562E5,5.34E2,2.26307E5,6.398E-1,-5.1172414E0,5.38825E0,1.76E0,7.39E2,4.97E2,4.09962E5,4.40089E3,-2.1461487E-2,-1.700737E0,-2.028127E-1,2.1434631E0,-1.3240758E0,1.0318778E0,4.540114E0,1.0636994E0],"split_indices":[0,2,0,9,0,0,7,1,2,6,5,0,0,0,0,0,0,0,0],"split_type":[0,0,0,0,0,0,0,0,0,0,0,0,0,0,0,0,0,0,0],"sum_hessian":[7.1E1,1.4E1,5.7E1,1E1,4E0,4E0,5.3E1,6E0,4E0,4.8E1,5E0,1E0,5E0,2E0,2E0,2.7E1,2.1E1,3E0,2E0],"tree_param":{"num_deleted":"0","num_feature":"11","num_nodes":"19","size_leaf_vector":"1"}},{"base_weights":[5.691155E-1,-1.0506774E1,9.199831E0,-2.0823524E0,-3.5519745E1,-1.1544669E0,2.9251297E1,-2.4612347E1,1.4578466E1,-4.696446E1,-1.2333916E1,7.2668624E0,-4.1345955E1,3.631127E1,-3.126419E0,9.053383E-1,-3.8368669E0,-1.7065241E0,2.7636657E0,-1.6683158E0,-6.1590943E0,2.7446595E-1,-1.8274994E0,-3.8577402E-1,6.385431E0,-5.318603E0,3.0071718E-1,5.339113E0,1.8962468E0],"categories":[],"categories_nodes":[],"categories_segments":[],"categories_sizes":[],"default_left":[0,0,0,0,0,0,0,0,0,0,0,0,0,0,0,0,0,0,0,0,0,0,0,0,0,0,0,0,0],"id":14,"left_children":[1,3,5,7,9,11,13,15,17,19,21,23,25,27,-1,-1,-1,-1,-1,-1,-1,-1,-1,-1,-1,-1,-1,-1,-1],"loss_changes":[6.9793457E3,6.6690684E3,8.546143E3,9.743015E3,1.5435869E3,9.777496E3,7.1165723E3,5.4416484E3,6.6697686E3,1.1870127E3,4.084906E2,1.5354641E4,2.7856602E3,2.839668E3,0E0,0E0,0E0,0E0,0E0,0E0,0E0,0E0,0E0,0E0,0E0,0E0,0E0,0E0,0E0],"parents":[2147483647,0,0,1,1,2,2,3,3,4,4,5,5,6,6,7,7,8,8,9,9,10,10,11,11,12,12,13,13],"right_children":[2,4,6,8,10,12,14,16,18,20,22,24,26,28,-1,-1,-1,-1,-1,-1,-1,-1,-1,-1,-1,-1,-1,-1,-1],"split_conditions":[1.62E0,1.6E0,7.29166E1,2.16562E5,6.406E-1,5.61E2,6E2,3.12782E5,6.231E-1,2.288E5,2.78618E5,4.06843E5,1.72E0,7.75985E1,-3.126419E0,9.053383E-1,-3.8368669E0,-1.7065241E0,2.7636657E0,-1.6683158E0,-6.1590943E0,2.7446595E-1,-1.8274994E0,-3.8577402E-1,6.385431E0,-5.318603E0,3.0071718E-1,5.339113E0,1.8962468E0],"split_indices":[7,7,10,0,9,2,2,6,9,0,0,6,7,10,0,0,0,0,0,0,0,0,0,0,0,0,0,0,0],"split_type":[0,0,0,0,0,0,0,0,0,0,0,0,0,0,0,0,0,0,0,0,0,0,0,0,0,0,0,0,0],"sum_hessian":[7.1E1,3.1E1,4E1,2.4E1,7E0,2.7E1,1.3E1,1E1,1.4E1,4E0,3E0,2.3E1,4E0,1.2E1,1E0,3E0,7E0,4E0,1E1,2E0,2E0,1E0,2E0,2E1,3E0,3E0,1E0,5E0,7E0],"tree_param":{"num_deleted":"0","num_feature":"11","num_nodes":"29","size_leaf_vector":"1"}},{"base_weights":[4.2658955E-1,-9.807817E0,8.404015E0,8.589726E0,-1.985366E1,-3.7307832E0,2.265119E1,-8.903469E0,4.580199E0,-2.947962E1,-5.265236E-1,1.4253967E1,-3.3290836E1,4.3580746E1,-1.1574539E1,-2.3800735E0,2.5119528E-1,-1.6285992E0,-4.9970956E0,3.6405473E0,-1.1003305E0,-1.9537653E0,3.3103542E0,-7.319507E-1,-5.2604E0,5.208181E-1,5.073444E0,1.7727636E0,-4.5308623E0],"categories":[],"categories_nodes":[],"categories_segments":[],"categories_sizes":[],"default_left":[0,0,0,0,0,0,0,0,0,0,0,0,0,0,0,0,0,0,0,0,0,0,0,0,0,0,0,0,0],"id":15,"left_children":[1,3,5,7,9,11,13,15,-1,17,19,21,23,25,27,-1,-1,-1,-1,-1,-1,-1,-1,-1,-1,-1,-1,-1,-1],"loss_changes":[5.9608086E3,6.0847407E3,7.172857E3,8.219334E3,3.8913662E3,1.2702021E4,1.4114683E4,1.5903136E3,0E0,2.9711436E3,3.496008E3,1.0201131E4,4.1292607E3,3.029832E3,8.711071E3,0E0,0E0,0E0,0E0,0E0,0E0,0E0,0E0,0E0,0E0,0E0,0E0,0E0,0E0],"parents":[2147483647,0,0,1,1,2,2,3,3,4,4,5,5,6,6,7,7,9,9,10,10,11,11,12,12,13,13,14,14],"right_children":[2,4,6,8,10,12,14,16,-1,18,20,22,24,26,28,-1,-1,-1,-1,-1,-1,-1,-1,-1,-1,-1,-1,-1,-1],"split_conditions":[1.62E0,5.36E2,4.15798E3,2.14697E5,6.579E-1,3.94784E3,4.7661E3,6.197E-1,4.580199E0,5.16E-1,5.097E-1,4.963E-1,1.7E0,5.25E2,4.49168E5,-2.3800735E0,2.5119528E-1,-1.6285992E0,-4.9970956E0,3.6405473E0,-1.1003305E0,-1.9537653E0,3.3103542E0,-7.319507E-1,-5.2604E0,5.208181E-1,5.073444E0,1.7727636E0,-4.5308623E0],"split_indices":[7,2,5,0,9,5,5,9,0,8,8,8,7,2,6,0,0,0,0,0,0,0,0,0,0,0,0,0,0],"split_type":[0,0,0,0,0,0,0,0,0,0,0,0,0,0,0,0,0,0,0,0,0,0,0,0,0,0,0,0,0],"sum_hessian":[7.1E1,3.1E1,4E1,1.1E1,2E1,2.2E1,1.8E1,8E0,3E0,1.3E1,7E0,1.4E1,8E0,1.1E1,7E0,3E0,5E0,9E0,4E0,1E0,6E0,5E0,9E0,4E0,4E0,2E0,9E0,4E0,3E0],"tree_param":{"num_deleted":"0","num_feature":"11","num_nodes":"29","size_leaf_vector":"1"}},{"base_weights":[3.3624226E-1,2.6193983E1,-2.41134E0,-1.1733811E0,3.4470917E1,2.2312024E0,-2.5826887E1,1.3010255E-1,4.084469E0,-6.6879287E0,2.9466305E1,-3.6352116E1,3.9712694E0,-1.1250873E0,3.024062E0,5.964629E0,1.1429682E0,-8.5346144E-1,-4.7054667E0],"categories":[],"categories_nodes":[],"categories_segments":[],"categories_sizes":[],"default_left":[0,0,0,0,0,0,0,0,0,0,0,0,0,0,0,0,0,0,0],"id":16,"left_children":[1,3,5,-1,7,9,11,-1,-1,13,15,17,-1,-1,-1,-1,-1,-1,-1],"loss_changes":[5.1784946E3,2.601956E3,7.232331E3,0E0,1.2153643E3,1.380022E4,9.031649E3,0E0,0E0,7.585857E3,6.939093E3,2.5755889E3,0E0,0E0,0E0,0E0,0E0,0E0,0E0],"parents":[2147483647,0,0,1,1,2,2,4,4,5,5,6,6,9,9,10,10,11,11],"right_children":[2,4,6,-1,8,10,12,-1,-1,14,16,18,-1,-1,-1,-1,-1,-1,-1],"split_conditions":[4.787E-1,8.7E2,4.72004E3,-1.1733811E0,2.11226E5,4.17396E3,6.47726E3,1.3010255E-1,4.084469E0,4.09696E5,4.40089E3,5.76E2,3.9712694E0,-1.1250873E0,3.024062E0,5.964629E0,1.1429682E0,-8.5346144E-1,-4.7054667E0],"split_indices":[8,1,5,0,0,5,5,0,0,6,5,2,0,0,0,0,0,0,0],"split_type":[0,0,0,0,0,0,0,0,0,0,0,0,0,0,0,0,0,0,0],"sum_hessian":[7.1E1,6E0,6.5E1,1E0,5E0,5.5E1,1E1,1E0,4E0,4.2E1,1.3E1,9E0,1E0,3.8E1,4E0,4E0,9E0,3E0,6E0],"tree_param":{"num_deleted":"0","num_feature":"11","num_nodes":"19","size_leaf_vector":"1"}},{"base_weights":[4.4790098E-1,1.0289534E1,-6.4287705E0,-5.6569877E0,3.157783E1,-2.839916E1,2.9919984E0,3.5276222E-1,-3.5823322E1,2.2786357E0,3.6697807E1,9.315694E-1,-3.3816708E1,2.8902262E1,-8.921393E0,6.895269E-1,-1.5419806E0,1.1154175E-2,-5.3846526E0,1.8167679E0,-1.4749726E0,3.9597726E0,3.8493195E-1,-2.8365097E0,2.9762452E0,-4.7393756E0,-1.4603547E0,-4.6074176E0,4.235233E0,-4.6411033E0,-5.5929083E-2],"categories":[],"categories_nodes":[],"categories_segments":[],"categories_sizes":[],"default_left":[0,0,0,0,0,0,0,0,0,0,0,0,0,0,0,0,0,0,0,0,0,0,0,0,0,0,0,0,0,0,0],"id":17,"left_children":[1,3,5,7,9,11,13,15,17,19,21,23,25,27,29,-1,-1,-1,-1,-1,-1,-1,-1,-1,-1,-1,-1,-1,-1,-1,-1],"loss_changes":[4.9389414E3,1.0362863E4,8.985022E3,3.2758955E3,1.8665234E3,2.09721E3,9.826901E3,1.7573978E3,1.9489902E3,1.0796614E3,8.954131E2,3.3781611E3,2.1773213E3,1.20357295E4,6.870872E3,0E0,0E0,0E0,0E0,0E0,0E0,0E0,0E0,0E0,0E0,0E0,0E0,0E0,0E0,0E0,0E0],"parents":[2147483647,0,0,1,1,2,2,3,3,4,4,5,5,6,6,7,7,8,8,9,9,10,10,11,11,12,12,13,13,14,14],"right_children":[2,4,6,8,10,12,14,16,18,20,22,24,26,28,30,-1,-1,-1,-1,-1,-1,-1,-1,-1,-1,-1,-1,-1,-1,-1,-1],"split_conditions":[5.41E2,5.29E2,2.46819E5,5.336E-1,2.10971E5,5.49081E1,2.72651E5,5.25E2,2.04389E5,2.08523E5,2.95156E5,2.16215E5,3.91298E3,3.77033E3,2.74018E5,6.895269E-1,-1.5419806E0,1.1154175E-2,-5.3846526E0,1.8167679E0,-1.4749726E0,3.9597726E0,3.8493195E-1,-2.8365097E0,2.9762452E0,-4.7393756E0,-1.4603547E0,-4.6074176E0,4.235233E0,-4.6411033E0,-5.5929083E-2],"split_indices":[2,2,0,8,0,10,0,2,0,0,0,0,5,5,0,0,0,0,0,0,0,0,0,0,0,0,0,0,0,0,0],"split_type":[0,0,0,0,0,0,0,0,0,0,0,0,0,0,0,0,0,0,0,0,0,0,0,0,0,0,0,0,0,0,0],"sum_hessian":[7.1E1,2.9E1,4.2E1,1.7E1,1.2E1,1.2E1,3E1,1.5E1,2E0,2E0,1E1,2E0,1E1,9E0,2.1E1,1.1E1,4E0,1E0,1E0,1E0,1E0,9E0,1E0,1E0,1E0,5E0,5E0,1E0,8E0,3E0,1.8E1],"tree_param":{"num_deleted":"0","num_feature":"11","num_nodes":"31","size_leaf_vector":"1"}},{"base_weights":[2.2716099E-1,9.20927E0,-6.0447087E0,-5.437166E0,2.8780544E1,-2.6025394E1,2.5292792E0,2.6421928E-1,-3.4032166E1,2.1647034E0,3.3422997E1,-3.9511993E1,-1.2657272E1,2.597482E1,-8.242752E0,6.2632143E-1,-1.4186213E0,1.05957035E-2,-5.115421E0,1.7259293E0,-1.4012238E0,3.9283586E0,1.334607E0,-4.8325715E0,-1.4589702E0,-2.2543833E0,2.8274324E0,-4.377046E0,3.8587682E0,-4.29302E0,-5.0630268E-2],"categories":[],"categories_nodes":[],"categories_segments":[],"categories_sizes":[],"default_left":[0,0,0,0,0,0,0,0,0,0,0,0,0,0,0,0,0,0,0,0,0,0,0,0,0,0,0,0,0,0,0],"id":18,"left_children":[1,3,5,7,9,11,13,15,17,19,21,23,25,27,29,-1,-1,-1,-1,-1,-1,-1,-1,-1,-1,-1,-1,-1,-1,-1,-1],"loss_changes":[4.11176E3,8.755967E3,7.4323345E3,2.9435518E3,1.5339639E3,1.8436621E3,8.0433433E3,1.4758604E3,1.7589631E3,9.7439417E2,7.700088E2,6.128916E2,3.874793E3,1.0485877E4,5.8821333E3,0E0,0E0,0E0,0E0,0E0,0E0,0E0,0E0,0E0,0E0,0E0,0E0,0E0,0E0,0E0,0E0],"parents":[2147483647,0,0,1,1,2,2,3,3,4,4,5,5,6,6,7,7,8,8,9,9,10,10,11,11,12,12,13,13,14,14],"right_children":[2,4,6,8,10,12,14,16,18,20,22,24,26,28,30,-1,-1,-1,-1,-1,-1,-1,-1,-1,-1,-1,-1,-1,-1,-1,-1],"split_conditions":[5.41E2,5.29E2,2.46819E5,5.336E-1,2.10971E5,5.53E2,2.72651E5,5.25E2,2.04389E5,2.08523E5,5.36E2,3.91298E3,2.40823E5,3.77033E3,2.74018E5,6.2632143E-1,-1.4186213E0,1.05957035E-2,-5.115421E0,1.7259293E0,-1.4012238E0,3.9283586E0,1.334607E0,-4.8325715E0,-1.4589702E0,-2.2543833E0,2.8274324E0,-4.377046E0,3.8587682E0,-4.29302E0,-5.0630268E-2],"split_indices":[2,2,0,8,0,2,0,2,0,0,2,5,0,5,0,0,0,0,0,0,0,0,0,0,0,0,0,0,0,0,0],"split_type":[0,0,0,0,0,0,0,0,0,0,0,0,0,0,0,0,0,0,0,0,0,0,0,0,0,0,0,0,0,0,0],"sum_hessian":[7.1E1,2.9E1,4.2E1,1.7E1,1.2E1,1.2E1,3E1,1.5E1,2E0,2E0,1E1,5E0,7E0,9E0,2.1E1,1.1E1,4E0,1E0,1E0,1E0,1E0,7E0,3E0,3E0,2E0,6E0,1E0,1E0,8E0,3E0,1.8E1],"tree_param":{"num_deleted":"0","num_feature":"11","num_nodes":"31","size_leaf_vector":"1"}},{"base_weights":[5.3201888E-2,-1.3671552E1,3.6017897E0,-2.2450173E0,-3.6075616E0,3.907765E0,2.5028822E-1,-9.882197E0,8.896039E0,-4.8596497E0,2.0888407E0,-1.3313141E0,-8.6989336E-2,-2.9490864E-1,1.7775818E0,7.7466315E-1,-1.2760671E0],"categories":[],"categories_nodes":[],"categories_segments":[],"categories_sizes":[],"default_left":[0,0,0,0,0,0,0,0,0,0,0,0,0,0,0,0,0],"id":19,"left_children":[1,3,5,7,-1,-1,9,11,13,-1,15,-1,-1,-1,-1,-1,-1],"loss_changes":[3.5558933E3,3.7590217E3,6.8862686E3,1.02386127E3,0E0,0E0,4.9511084E3,2.0486389E2,5.783329E2,0E0,4.55167E3,0E0,0E0,0E0,0E0,0E0,0E0],"parents":[2147483647,0,0,1,1,2,2,3,3,6,6,7,7,8,8,10,10],"right_children":[2,4,6,8,-1,-1,10,12,14,-1,16,-1,-1,-1,-1,-1,-1],"split_conditions":[2.16562E5,5.34E2,2.26307E5,6.398E-1,-3.6075616E0,3.907765E0,5.16E2,7.86E2,4.97E2,-4.8596497E0,4.4103E5,-1.3313141E0,-8.6989336E-2,-2.9490864E-1,1.7775818E0,7.7466315E-1,-1.2760671E0],"split_indices":[0,2,0,9,0,0,2,1,2,0,6,0,0,0,0,0,0],"split_type":[0,0,0,0,0,0,0,0,0,0,0,0,0,0,0,0,0],"sum_hessian":[7.1E1,1.4E1,5.7E1,1E1,4E0,4E0,5.3E1,6E0,4E0,1E0,5.2E1,4E0,2E0,2E0,2E0,3.8E1,1.4E1],"tree_param":{"num_deleted":"0","num_feature":"11","num_nodes":"17","size_leaf_vector":"1"}},{"base_weights":[-2.1511925E-2,2.0631937E1,-2.2117033E0,-9.677078E-1,2.7296286E1,1.6619176E0,-2.173089E1,6.2155154E-2,3.2506921E0,-4.763556E0,2.8380995E1,-3.1587652E1,3.8418367E0,8.322725E-3,-4.4523826E0,4.6098423E0,5.933401E-1,-7.9625094E-1,-4.0575213E0],"categories":[],"categories_nodes":[],"categories_segments":[],"categories_sizes":[],"default_left":[0,0,0,0,0,0,0,0,0,0,0,0,0,0,0,0,0,0,0],"id":20,"left_children":[1,3,5,-1,7,9,11,-1,-1,13,15,17,-1,-1,-1,-1,-1,-1,-1],"loss_changes":[3.302552E3,1.6780769E3,5.02637E3,0E0,8.13749E2,9.749428E3,7.735192E3,0E0,0E0,8.868337E3,4.101329E3,1.8002441E3,0E0,0E0,0E0,0E0,0E0,0E0,0E0],"parents":[2147483647,0,0,1,1,2,2,4,4,5,5,6,6,9,9,10,10,11,11],"right_children":[2,4,6,-1,8,10,12,-1,-1,14,16,18,-1,-1,-1,-1,-1,-1,-1],"split_conditions":[4.787E-1,8.7E2,4.72004E3,-9.677078E-1,2.11226E5,4.09962E5,6.47726E3,6.2155154E-2,3.2506921E0,4.02596E5,5.66E2,5.76E2,3.8418367E0,8.322725E-3,-4.4523826E0,4.6098423E0,5.933401E-1,-7.9625094E-1,-4.0575213E0],"split_indices":[8,1,5,0,0,6,5,0,0,6,2,2,0,0,0,0,0,0,0],"split_type":[0,0,0,0,0,0,0,0,0,0,0,0,0,0,0,0,0,0,0],"sum_hessian":[7.1E1,6E0,6.5E1,1E0,5E0,5.5E1,1E1,1E0,4E0,4.5E1,1E1,9E0,1E0,4.1E1,4E0,5E0,5E0,3E0,6E0],"tree_param":{"num_deleted":"0","num_feature":"11","num_nodes":"19","size_leaf_vector":"1"}},{"base_weights":[9.69908E-3,-3.4538376E0,1.2347942E1,2.1345286E-2,-3.299645E1,2.2451962E1,-2.3577103E1,-1.0698697E1,8.892368E0,1.5177206E0,-5.063297E0,8.108953E0,5.269649E0,-3.0826519E0,-9.1442876E-2,-2.3094203E0,-1.7217813E-1,1.2920319E0,-3.0323303E0,2.4395753E-2,2.0326233E-1,2.2122657E0,-1.0329279E0],"categories":[],"categories_nodes":[],"categories_segments":[],"categories_sizes":[],"default_left":[0,0,0,0,0,0,0,0,0,0,0,0,0,0,0,0,0,0,0,0,0,0,0],"id":21,"left_children":[1,3,5,7,9,11,13,15,17,19,-1,21,-1,-1,-1,-1,-1,-1,-1,-1,-1,-1,-1],"loss_changes":[3.1194927E3,5.8526655E3,6.3371484E3,5.0402197E3,3.729105E3,5.2120537E3,6.289758E2,2.630798E3,4.972591E3,1.4717188E0,0E0,2.8123901E3,0E0,0E0,0E0,0E0,0E0,0E0,0E0,0E0,0E0,0E0,0E0],"parents":[2147483647,0,0,1,1,2,2,3,3,4,4,5,5,6,6,7,7,8,8,9,9,11,11],"right_children":[2,4,6,8,10,12,14,16,18,20,-1,22,-1,-1,-1,-1,-1,-1,-1,-1,-1,-1,-1],"split_conditions":[6.733E-1,5.36E-1,4.49168E5,1.63E0,1.54E0,9.31E2,5.35354E5,2.16562E5,6.697E-1,2.04389E5,-5.063297E0,9.01E2,5.269649E0,-3.0826519E0,-9.1442876E-2,-2.3094203E0,-1.7217813E-1,1.2920319E0,-3.0323303E0,2.4395753E-2,2.0326233E-1,2.2122657E0,-1.0329279E0],"split_indices":[9,8,6,7,7,1,0,0,9,0,0,1,0,0,0,0,0,0,0,0,0,0,0],"split_type":[0,0,0,0,0,0,0,0,0,0,0,0,0,0,0,0,0,0,0,0,0,0,0],"sum_hessian":[7.1E1,5.6E1,1.5E1,5.1E1,5E0,1.2E1,3E0,2.3E1,2.8E1,2E0,3E0,9E0,3E0,2E0,1E0,9E0,1.4E1,2.6E1,2E0,1E0,1E0,5E0,4E0],"tree_param":{"num_deleted":"0","num_feature":"11","num_nodes":"23","size_leaf_vector":"1"}},{"base_weights":[-7.158915E-2,7.490099E0,-5.3455205E0,-4.916044E0,2.4091675E1,-2.3255663E1,2.33762E0,-1.0462189E-1,-2.8938284E1,8.483612E0,3.0085968E1,-3.651987E1,-1.0400547E1,3.284942E1,-3.399292E0,-1.2834107E0,5.208048E-1,2.3176575E-2,-4.3639193E0,2.5821128E0,-1.1681774E0,3.3035386E0,3.2453156E-1,-4.389557E0,-1.4512318E0,-1.9473542E0,2.6555207E0,1.3891917E0,4.085712E0,2.9300568E0,-1.0360162E0],"categories":[],"categories_nodes":[],"categories_segments":[],"categories_sizes":[],"default_left":[0,0,0,0,0,0,0,0,0,0,0,0,0,0,0,0,0,0,0,0,0,0,0,0,0,0,0,0,0,0,0],"id":22,"left_children":[1,3,5,7,9,11,13,15,17,19,21,23,25,27,29,-1,-1,-1,-1,-1,-1,-1,-1,-1,-1,-1,-1,-1,-1,-1,-1],"loss_changes":[2.911386E3,6.2972817E3,5.9714263E3,2.0774329E3,9.610332E2,1.8368418E3,5.5380137E3,1.1488815E3,1.2965925E3,2.0497249E3,6.0526807E2,3.3689893E2,3.1995183E3,1.9144629E2,6.449284E3,0E0,0E0,0E0,0E0,0E0,0E0,0E0,0E0,0E0,0E0,0E0,0E0,0E0,0E0,0E0,0E0],"parents":[2147483647,0,0,1,1,2,2,3,3,4,4,5,5,6,6,7,7,8,8,9,9,10,10,11,11,12,12,13,13,14,14],"right_children":[2,4,6,8,10,12,14,16,18,20,22,24,26,28,30,-1,-1,-1,-1,-1,-1,-1,-1,-1,-1,-1,-1,-1,-1,-1,-1],"split_conditions":[5.41E2,5.29E2,2.46819E5,5.336E-1,1.54E0,5.53E2,6.205E-1,6.119E-1,2.04389E5,7.86E2,2.95156E5,3.91298E3,2.40823E5,2.64632E5,4.02164E5,-1.2834107E0,5.208048E-1,2.3176575E-2,-4.3639193E0,2.5821128E0,-1.1681774E0,3.3035386E0,3.2453156E-1,-4.389557E0,-1.4512318E0,-1.9473542E0,2.6555207E0,1.3891917E0,4.085712E0,2.9300568E0,-1.0360162E0],"split_indices":[2,2,0,8,7,2,9,9,0,1,0,5,0,0,6,0,0,0,0,0,0,0,0,0,0,0,0,0,0,0,0],"split_type":[0,0,0,0,0,0,0,0,0,0,0,0,0,0,0,0,0,0,0,0,0,0,0,0,0,0,0,0,0,0,0],"sum_hessian":[7.1E1,2.9E1,4.2E1,1.7E1,1.2E1,1.2E1,3E1,1.5E1,2E0,4E0,8E0,5E0,7E0,4E0,2.6E1,4E0,1.1E1,1E0,1E0,2E0,2E0,7E0,1E0,3E0,2E0,6E0,1E0,2E0,2E0,4E0,2.2E1],"tree_param":{"num_deleted":"0","num_feature":"11","num_nodes":"31","size_leaf_vector":"1"}},{"base_weights":[-3.4222074E-2,-3.1515207E0,1.1073294E1,-7.8250594E-2,-2.9261276E1,2.0162798E1,-2.1235916E1,-1.4782067E1,4.702446E0,1.7794596E0,-4.522651E0,6.837088E0,4.843637E0,-2.808075E0,-3.5070803E-2,-1.8296967E-1,-2.9588218E0,1.7637066E0,-2.1785584E-1,2.2018433E-2,2.4490051E-1,2.0039954E0,-1.0373768E0],"categories":[],"categories_nodes":[],"categories_segments":[],"categories_sizes":[],"default_left":[0,0,0,0,0,0,0,0,0,0,0,0,0,0,0,0,0,0,0,0,0,0,0],"id":23,"left_children":[1,3,5,7,9,11,13,15,17,19,-1,21,-1,-1,-1,-1,-1,-1,-1,-1,-1,-1,-1],"loss_changes":[2.52793E3,4.571523E3,5.12697E3,3.7248252E3,3.0539146E3,4.566787E3,5.61975E2,2.4389336E3,3.5985498E3,2.592785E0,0E0,2.4802156E3,0E0,0E0,0E0,0E0,0E0,0E0,0E0,0E0,0E0,0E0,0E0],"parents":[2147483647,0,0,1,1,2,2,3,3,4,4,5,5,6,6,7,7,8,8,9,9,11,11],"right_children":[2,4,6,8,10,12,14,16,18,20,-1,22,-1,-1,-1,-1,-1,-1,-1,-1,-1,-1,-1],"split_conditions":[6.733E-1,5.36E-1,4.49168E5,2.16562E5,1.54E0,9.31E2,5.35354E5,5.28E2,5.41E2,2.04389E5,-4.522651E0,6.836E-1,4.843637E0,-2.808075E0,-3.5070803E-2,-1.8296967E-1,-2.9588218E0,1.7637066E0,-2.1785584E-1,2.2018433E-2,2.4490051E-1,2.0039954E0,-1.0373768E0],"split_indices":[9,8,6,0,7,1,0,2,2,0,0,9,0,0,0,0,0,0,0,0,0,0,0],"split_type":[0,0,0,0,0,0,0,0,0,0,0,0,0,0,0,0,0,0,0,0,0,0,0],"sum_hessian":[7.1E1,5.6E1,1.5E1,5.1E1,5E0,1.2E1,3E0,1.2E1,3.9E1,2E0,3E0,9E0,3E0,2E0,1E0,7E0,5E0,1.3E1,2.6E1,1E0,1E0,5E0,4E0],"tree_param":{"num_deleted":"0","num_feature":"11","num_nodes":"23","size_leaf_vector":"1"}},{"base_weights":[-7.086182E-2,-2.9390302E0,1.0151417E1,-1.0111647E-1,-2.7044443E1,4.540916E0,1.871085E0,-1.3545526E1,4.2708445E0,1.6904806E0,-4.1834526E0,9.589786E0,-1.9823112E1,-1.6695862E-1,-2.7122524E0,3.2051384E0,1.1521145E-1,2.0916749E-2,2.3265533E-1,9.142558E-2,3.2419782E0,-2.62087E0,-3.3317566E-2],"categories":[],"categories_nodes":[],"categories_segments":[],"categories_sizes":[],"default_left":[0,0,0,0,0,0,0,0,0,0,0,0,0,0,0,0,0,0,0,0,0,0,0],"id":24,"left_children":[1,3,5,7,9,-1,11,13,15,17,-1,19,21,-1,-1,-1,-1,-1,-1,-1,-1,-1,-1],"loss_changes":[2.1408188E3,3.8965833E3,4.586168E3,3.114329E3,2.6206719E3,0E0,2.5344136E3,2.0508315E3,3.4286733E3,2.3400297E0,0E0,2.149045E3,4.8908655E2,0E0,0E0,0E0,0E0,0E0,0E0,0E0,0E0,0E0,0E0],"parents":[2147483647,0,0,1,1,2,2,3,3,4,4,6,6,7,7,8,8,9,9,11,11,12,12],"right_children":[2,4,6,8,10,-1,12,14,16,18,-1,20,22,-1,-1,-1,-1,-1,-1,-1,-1,-1,-1],"split_conditions":[6.733E-1,5.36E-1,6.762E-1,2.16562E5,1.54E0,4.540916E0,4.49168E5,5.28E2,3.70192E3,2.04389E5,-4.1834526E0,9.31E2,5.35354E5,-1.6695862E-1,-2.7122524E0,3.2051384E0,1.1521145E-1,2.0916749E-2,2.3265533E-1,9.142558E-2,3.2419782E0,-2.62087E0,-3.3317566E-2],"split_indices":[9,8,9,0,7,0,6,2,5,0,0,1,0,0,0,0,0,0,0,0,0,0,0],"split_type":[0,0,0,0,0,0,0,0,0,0,0,0,0,0,0,0,0,0,0,0,0,0,0],"sum_hessian":[7.1E1,5.6E1,1.5E1,5.1E1,5E0,2E0,1.3E1,1.2E1,3.9E1,2E0,3E0,1E1,3E0,7E0,5E0,3E0,3.6E1,1E0,1E0,8E0,2E0,2E0,1E0],"tree_param":{"num_deleted":"0","num_feature":"11","num_nodes":"23","size_leaf_vector":"1"}},{"base_weights":[-3.973092E-2,-4.6213336E0,5.831689E0,-7.960997E0,2.8260803E0,1.7077581E1,-8.05216E0,3.9378583E0,-2.4568039E1,6.698128E0,2.921463E1,-2.0071686E1,1.3322408E1,-5.1412946E-1,2.1603932E0,4.8566055E-1,-3.1731927E0,1.7403033E0,-9.6283627E-1,3.353009E0,1.08455E0,-3.004537E0,2.4001847E-1,3.6413496E0,-7.3265076E-1],"categories":[],"categories_nodes":[],"categories_segments":[],"categories_sizes":[],"default_left":[0,0,0,0,0,0,0,0,0,0,0,0,0,0,0,0,0,0,0,0,0,0,0,0,0],"id":25,"left_children":[1,3,5,7,-1,9,11,13,15,17,19,21,23,-1,-1,-1,-1,-1,-1,-1,-1,-1,-1,-1,-1],"loss_changes":[1.963787E3,4.7274106E3,5.1338726E3,7.6057275E3,0E0,2.0718833E3,4.1210854E3,3.8001108E3,3.5268262E3,2.0900715E3,2.7051904E2,2.313388E3,3.1276187E3,0E0,0E0,0E0,0E0,0E0,0E0,0E0,0E0,0E0,0E0,0E0,0E0],"parents":[2147483647,0,0,1,1,2,2,3,3,5,5,6,6,7,7,8,8,9,9,10,10,11,11,12,12],"right_children":[2,4,6,8,-1,10,12,14,16,18,20,22,24,-1,-1,-1,-1,-1,-1,-1,-1,-1,-1,-1,-1],"split_conditions":[4.11405E3,4.09696E5,4.39837E5,5.37E2,2.8260803E0,9.31E2,9.97E2,5.29E2,5.66024E1,5.097E-1,7.70932E1,6.16E2,1.024E3,-5.1412946E-1,2.1603932E0,4.8566055E-1,-3.1731927E0,1.7403033E0,-9.6283627E-1,3.353009E0,1.08455E0,-3.004537E0,2.4001847E-1,3.6413496E0,-7.3265076E-1],"split_indices":[5,6,6,2,0,1,1,2,10,8,10,2,1,0,0,0,0,0,0,0,0,0,0,0,0],"split_type":[0,0,0,0,0,0,0,0,0,0,0,0,0,0,0,0,0,0,0,0,0,0,0,0,0],"sum_hessian":[7.1E1,4E1,3.1E1,3.7E1,3E0,1.7E1,1.4E1,2.2E1,1.5E1,1E1,7E0,9E0,5E0,1.5E1,7E0,3E0,1.2E1,6E0,4E0,5E0,2E0,6E0,3E0,2E0,3E0],"tree_param":{"num_deleted":"0","num_feature":"11","num_nodes":"25","size_leaf_vector":"1"}},{"base_weights":[6.346215E-2,-2.5561213E0,9.391762E0,-4.8583396E-2,-2.3862097E1,4.0684123E0,2.0154157E0,-7.717752E0,6.2999897E0,1.6973267E0,-3.706614E0,8.887579E0,-1.7386887E1,-9.637896E-1,1.8222779E0,9.591899E-1,-2.5427186E0,4.5578003E-2,2.09021E-1,1.5536025E-1,2.7926981E0,-2.321572E0,4.9804687E-3],"categories":[],"categories_nodes":[],"categories_segments":[],"categories_sizes":[],"default_left":[0,0,0,0,0,0,0,0,0,0,0,0,0,0,0,0,0,0,0,0,0,0,0],"id":26,"left_children":[1,3,5,7,9,-1,11,13,15,17,-1,19,21,-1,-1,-1,-1,-1,-1,-1,-1,-1,-1],"loss_changes":[1.7834172E3,3.0440964E3,3.6111768E3,2.5804124E3,2.0878396E3,0E0,2.0212284E3,1.3710582E3,3.2727407E3,5.1067257E-1,0E0,1.4925923E3,4.0769836E2,0E0,0E0,0E0,0E0,0E0,0E0,0E0,0E0,0E0,0E0],"parents":[2147483647,0,0,1,1,2,2,3,3,4,4,6,6,7,7,8,8,9,9,11,11,12,12],"right_children":[2,4,6,8,10,-1,12,14,16,18,-1,20,22,-1,-1,-1,-1,-1,-1,-1,-1,-1,-1],"split_conditions":[6.733E-1,5.36E-1,6.762E-1,1.63E0,1.54E0,4.0684123E0,4.49168E5,8.24899E1,6.697E-1,2.04389E5,-3.706614E0,9.31E2,5.35354E5,-9.637896E-1,1.8222779E0,9.591899E-1,-2.5427186E0,4.5578003E-2,2.09021E-1,1.5536025E-1,2.7926981E0,-2.321572E0,4.9804687E-3],"split_indices":[9,8,9,7,7,0,6,10,9,0,0,1,0,0,0,0,0,0,0,0,0,0,0],"split_type":[0,0,0,0,0,0,0,0,0,0,0,0,0,0,0,0,0,0,0,0,0,0,0],"sum_hessian":[7.1E1,5.6E1,1.5E1,5.1E1,5E0,2E0,1.3E1,2.3E1,2.8E1,2E0,3E0,1E1,3E0,2.2E1,1E0,2.6E1,2E0,1E0,1E0,8E0,2E0,2E0,1E0],"tree_param":{"num_deleted":"0","num_feature":"11","num_nodes":"23","size_leaf_vector":"1"}},{"base_weights":[6.437513E-2,-2.3737926E0,8.746325E0,-5.766942E-2,-2.205123E1,3.7971845E0,1.8589761E0,-3.355569E0,1.4129065E1,1.6124573E0,-3.4286187E0,8.266824E0,-1.6227348E1,-7.6597804E-1,1.3755873E0,2.9304283E0,3.439074E-1,4.329834E-2,1.9857025E-1,-5.2400756E-1,1.6733633E0,-2.166801E0,4.7317506E-3],"categories":[],"categories_nodes":[],"categories_segments":[],"categories_sizes":[],"default_left":[0,0,0,0,0,0,0,0,0,0,0,0,0,0,0,0,0,0,0,0,0,0,0],"id":27,"left_children":[1,3,5,7,9,-1,11,13,15,17,-1,19,21,-1,-1,-1,-1,-1,-1,-1,-1,-1,-1],"loss_changes":[1.5448616E3,2.596524E3,3.1499922E3,2.480305E3,1.7924307E3,0E0,1.7566704E3,3.2723716E3,1.52145E3,4.6092272E-1,0E0,1.3456494E3,3.5520508E2,0E0,0E0,0E0,0E0,0E0,0E0,0E0,0E0,0E0,0E0],"parents":[2147483647,0,0,1,1,2,2,3,3,4,4,6,6,7,7,8,8,9,9,11,11,12,12],"right_children":[2,4,6,8,10,-1,12,14,16,18,-1,20,22,-1,-1,-1,-1,-1,-1,-1,-1,-1,-1],"split_conditions":[6.733E-1,5.36E-1,6.762E-1,5.255E-1,1.54E0,3.7971845E0,4.49168E5,9.61E2,5.268E-1,2.04389E5,-3.4286187E0,6.28927E1,5.35354E5,-7.6597804E-1,1.3755873E0,2.9304283E0,3.439074E-1,4.329834E-2,1.9857025E-1,-5.2400756E-1,1.6733633E0,-2.166801E0,4.7317506E-3],"split_indices":[9,8,9,8,7,0,6,1,8,0,0,10,0,0,0,0,0,0,0,0,0,0,0],"split_type":[0,0,0,0,0,0,0,0,0,0,0,0,0,0,0,0,0,0,0,0,0,0,0],"sum_hessian":[7.1E1,5.6E1,1.5E1,5.1E1,5E0,2E0,1.3E1,4.2E1,9E0,2E0,3E0,1E1,3E0,3.4E1,8E0,3E0,6E0,1E0,1E0,4E0,6E0,2E0,1E0],"tree_param":{"num_deleted":"0","num_feature":"11","num_nodes":"23","size_leaf_vector":"1"}},{"base_weights":[1.063012E-1,1.3716047E1,-1.3387673E0,-8.087387E-1,1.8697851E1,-9.162606E0,3.0591607E0,-1.4918518E-2,2.2497096E0,-1.5183854E1,1.1431778E1,3.2054336E0,8.3164215E-2,-7.336914E-1,-4.277565E0,2.1333141E0,-1.9037522E0,3.8632774E-1,-1.3366479E0],"categories":[],"categories_nodes":[],"categories_segments":[],"categories_sizes":[],"default_left":[0,0,0,0,0,0,0,0,0,0,0,0,0,0,0,0,0,0,0],"id":28,"left_children":[1,3,5,-1,7,9,11,-1,-1,13,15,-1,17,-1,-1,-1,-1,-1,-1],"loss_changes":[1.4343876E3,9.1155994E2,2.2990027E3,0E0,4.329829E2,3.1496719E3,3.7077847E3,0E0,0E0,3.7998706E3,2.216256E3,0E0,2.0852854E3,0E0,0E0,0E0,0E0,0E0,0E0],"parents":[2147483647,0,0,1,1,2,2,4,4,5,5,6,6,9,9,10,10,12,12],"right_children":[2,4,6,-1,8,10,12,-1,-1,14,16,-1,18,-1,-1,-1,-1,-1,-1],"split_conditions":[4.787E-1,8.7E2,5.071E-1,-8.087387E-1,2.11226E5,9.61E2,5.097E-1,-1.4918518E-2,2.2497096E0,2.50628E5,9.87E2,3.2054336E0,4.49168E5,-7.336914E-1,-4.277565E0,2.1333141E0,-1.9037522E0,3.8632774E-1,-1.3366479E0],"split_indices":[8,1,8,0,0,1,8,0,0,0,1,0,6,0,0,0,0,0,0],"split_type":[0,0,0,0,0,0,0,0,0,0,0,0,0,0,0,0,0,0,0],"sum_hessian":[7.1E1,6E0,6.5E1,1E0,5E0,2.3E1,4.2E1,1E0,4E0,1.8E1,5E0,3E0,3.9E1,1.5E1,3E0,4E0,1E0,3.1E1,8E0],"tree_param":{"num_deleted":"0","num_feature":"11","num_nodes":"19","size_leaf_vector":"1"}},{"base_weights":[8.0387115E-2,-2.9380572E0,6.6387277E0,5.183218E-1,-3.4149132E0,2.6328163E1,-5.617515E0,-3.6747632E0,1.4194025E1,3.4759045E0,1.2631647E1,-1.55829315E1,1.1927765E1,3.681613E-1,-1.6973091E0,2.0649965E0,2.3169068E-1,1.4185059E0,3.2089996E-1,-2.3737192E0,2.582756E-1,3.0840292E0,-5.238571E-1],"categories":[],"categories_nodes":[],"categories_segments":[],"categories_sizes":[],"default_left":[0,0,0,0,0,0,0,0,0,0,0,0,0,0,0,0,0,0,0,0,0,0,0],"id":29,"left_children":[1,3,5,7,-1,9,11,13,15,-1,17,19,21,-1,-1,-1,-1,-1,-1,-1,-1,-1,-1],"loss_changes":[1.444816E3,5.411566E3,5.6982236E3,2.6899556E3,0E0,6.001997E2,2.8085598E3,3.584278E3,7.956135E2,0E0,2.7666382E1,1.5425847E3,2.109512E3,0E0,0E0,0E0,0E0,0E0,0E0,0E0,0E0,0E0,0E0],"parents":[2147483647,0,0,1,1,2,2,3,3,5,5,6,6,7,7,8,8,10,10,11,11,12,12],"right_children":[2,4,6,8,-1,10,12,14,16,-1,18,20,22,-1,-1,-1,-1,-1,-1,-1,-1,-1,-1],"split_conditions":[4.09962E5,4.02596E5,4.4103E5,2.46819E5,-3.4149132E0,5.65E2,9.97E2,5.41E2,6.762E-1,3.4759045E0,2.71433E5,6.16E2,1.024E3,3.681613E-1,-1.6973091E0,2.0649965E0,2.3169068E-1,1.4185059E0,3.2089996E-1,-2.3737192E0,2.582756E-1,3.0840292E0,-5.238571E-1],"split_indices":[6,6,6,0,0,2,1,2,9,0,0,2,1,0,0,0,0,0,0,0,0,0,0],"split_type":[0,0,0,0,0,0,0,0,0,0,0,0,0,0,0,0,0,0,0,0,0,0,0],"sum_hessian":[7.1E1,4.9E1,2.2E1,4.5E1,4E0,8E0,1.4E1,3.5E1,1E1,4E0,4E0,9E0,5E0,2.3E1,1.2E1,6E0,4E0,3E0,1E0,6E0,3E0,2E0,3E0],"tree_param":{"num_deleted":"0","num_feature":"11","num_nodes":"23","size_leaf_vector":"1"}},{"base_weights":[1.1696582E-1,-2.6932037E0,6.2209444E0,4.8751765E-1,-3.14172E0,2.4274828E1,-5.026115E0,-3.7018468E0,1.2665871E1,3.1978333E1,1.1716357E1,-1.4236181E1,1.1161682E1,6.8922326E-2,-2.5040224E0,1.325409E-1,2.0576856E0,9.013397E-1,3.5466218E0,1.312117E0,3.0485535E-1,-2.1702576E0,2.3890534E-1,2.8784263E0,-4.8456725E-1],"categories":[],"categories_nodes":[],"categories_segments":[],"categories_sizes":[],"default_left":[0,0,0,0,0,0,0,0,0,0,0,0,0,0,0,0,0,0,0,0,0,0,0,0,0],"id":30,"left_children":[1,3,5,7,-1,9,11,13,15,17,19,21,23,-1,-1,-1,-1,-1,-1,-1,-1,-1,-1,-1,-1],"loss_changes":[1.2517858E3,4.583468E3,4.792229E3,2.3937869E3,0E0,4.960288E2,2.39526E3,3.296699E3,1.0492981E3,8.082373E1,2.088263E1,1.293154E3,1.8320244E3,0E0,0E0,0E0,0E0,0E0,0E0,0E0,0E0,0E0,0E0,0E0,0E0],"parents":[2147483647,0,0,1,1,2,2,3,3,5,5,6,6,7,7,8,8,9,9,10,10,11,11,12,12],"right_children":[2,4,6,8,-1,10,12,14,16,18,20,22,24,-1,-1,-1,-1,-1,-1,-1,-1,-1,-1,-1,-1],"split_conditions":[4.09962E5,4.02596E5,4.4103E5,6.579E-1,-3.14172E0,5.65E2,9.97E2,6.455E-1,6.11625E1,5.49E2,2.71433E5,6.16E2,1.024E3,6.8922326E-2,-2.5040224E0,1.325409E-1,2.0576856E0,9.013397E-1,3.5466218E0,1.312117E0,3.0485535E-1,-2.1702576E0,2.3890534E-1,2.8784263E0,-4.8456725E-1],"split_indices":[6,6,6,9,0,2,1,9,10,2,0,2,1,0,0,0,0,0,0,0,0,0,0,0,0],"split_type":[0,0,0,0,0,0,0,0,0,0,0,0,0,0,0,0,0,0,0,0,0,0,0,0,0],"sum_hessian":[7.1E1,4.9E1,2.2E1,4.5E1,4E0,8E0,1.4E1,3.4E1,1.1E1,4E0,4E0,9E0,5E0,2.9E1,5E0,5E0,6E0,1E0,3E0,3E0,1E0,6E0,3E0,2E0,3E0],"tree_param":{"num_deleted":"0","num_feature":"11","num_nodes":"25","size_leaf_vector":"1"}},{"base_weights":[1.4889781E-1,1.0143148E1,-1.4398547E0,-9.346443E0,1.9831038E1,-9.667847E0,2.904328E0,-1.6526536E0,-1.4442343E0,2.1602304E0,4.6017152E-1,-1.4201059E1,2.3776186E0,2.9393432E0,1.5413394E0,-3.2180788E-3,-2.1341705E-1,-3.0481813E0,-5.046322E-1,4.4206625E-1,-6.713237E-1],"categories":[],"categories_nodes":[],"categories_segments":[],"categories_sizes":[],"default_left":[0,0,0,0,0,0,0,0,0,0,0,0,0,0,0,0,0,0,0,0,0],"id":31,"left_children":[1,3,5,7,9,11,13,-1,15,-1,-1,17,-1,-1,19,-1,-1,-1,-1,-1,-1],"loss_changes":[1.1578489E3,2.0734797E3,2.2799443E3,2.0308618E2,8.941846E1,3.6730427E3,1.4710774E3,0E0,2.8540015E0,0E0,0E0,2.8270994E3,0E0,0E0,1.0041482E3,0E0,0E0,0E0,0E0,0E0,0E0],"parents":[2147483647,0,0,1,1,2,2,3,3,4,4,5,5,6,6,8,8,11,11,14,14],"right_children":[2,4,6,8,10,12,14,-1,16,-1,-1,18,-1,-1,20,-1,-1,-1,-1,-1,-1],"split_conditions":[5.66024E1,1.54E0,6.56434E1,7.51E2,6.697E-1,9.61E2,6.68842E1,-1.6526536E0,2.04389E5,2.1602304E0,4.6017152E-1,6.29E-1,2.3776186E0,2.9393432E0,5.273E-1,-3.2180788E-3,-2.1341705E-1,-3.0481813E0,-5.046322E-1,4.4206625E-1,-6.713237E-1],"split_indices":[10,7,10,1,9,1,10,0,0,0,0,9,0,0,8,0,0,0,0,0,0],"split_type":[0,0,0,0,0,0,0,0,0,0,0,0,0,0,0,0,0,0,0,0,0],"sum_hessian":[7.1E1,9E0,6.2E1,3E0,6E0,2.1E1,4.1E1,1E0,2E0,5E0,1E0,1.9E1,2E0,1E0,4E1,1E0,1E0,6E0,1.3E1,3E1,1E1],"tree_param":{"num_deleted":"0","num_feature":"11","num_nodes":"21","size_leaf_vector":"1"}},{"base_weights":[1.6575581E-1,-4.9234182E-1,2.3445344E0,1.1239944E0,-1.175199E1,-2.3410516E0,1.3418874E1,7.1644187E-1,-1.8180166E1,4.9429853E-2,-2.7958064E0,-9.882355E-1,2.067215E0,-2.1727912E0,1.5531464E-1],"categories":[],"categories_nodes":[],"categories_segments":[],"categories_sizes":[],"default_left":[0,0,0,0,0,0,0,0,0,0,0,0,0,0,0],"id":32,"left_children":[1,3,-1,5,7,9,11,-1,13,-1,-1,-1,-1,-1,-1],"loss_changes":[1.1146005E3,1.305365E3,0E0,2.7153606E3,1.2246324E3,3.6454795E3,2.5704326E3,0E0,5.238076E2,0E0,0E0,0E0,0E0,0E0,0E0],"parents":[2147483647,0,0,1,1,3,3,4,4,5,5,6,6,8,8],"right_children":[2,4,-1,6,8,10,12,-1,14,-1,-1,-1,-1,-1,-1],"split_conditions":[6.47726E3,4.7661E3,2.3445344E0,4.09962E5,4.41878E5,4.02596E5,1.57E0,7.1644187E-1,5.35354E5,4.9429853E-2,-2.7958064E0,-9.882355E-1,2.067215E0,-2.1727912E0,1.5531464E-1],"split_indices":[5,5,0,6,6,6,7,0,0,0,0,0,0,0,0],"split_type":[0,0,0,0,0,0,0,0,0,0,0,0,0,0,0],"sum_hessian":[7.1E1,7E1,1E0,6.2E1,8E0,4.9E1,1.3E1,2E0,6E0,4.5E1,4E0,3E0,1E1,5E0,1E0],"tree_param":{"num_deleted":"0","num_feature":"11","num_nodes":"15","size_leaf_vector":"1"}},{"base_weights":[1.4051014E-1,-1.8943337E0,7.3808594E0,-1.3333835E-1,-1.684057E1,1.9236328E1,-1.6560547E0,-1.8932098E0,1.4039755E0,-3.2049694E0,-1.223587E0,2.792599E1,-1.658549E0,-6.7896323E0,2.227307E0,1.9818115E0,-6.7323945E-2,2.0537518E-1,-5.5278015E-1,8.4121096E-1,3.0701432E0,-7.1673435E-1,4.6795198E-1,8.623891E-1,-1.2425481E0],"categories":[],"categories_nodes":[],"categories_segments":[],"categories_sizes":[],"default_left":[0,0,0,0,0,0,0,0,0,0,0,0,0,0,0,0,0,0,0,0,0,0,0,0,0],"id":33,"left_children":[1,3,5,7,9,11,13,-1,15,-1,17,19,21,23,-1,-1,-1,-1,-1,-1,-1,-1,-1,-1,-1],"loss_changes":[1.0747563E3,1.498009E3,1.7460459E3,1.529359E3,1.3859083E3,1.3173025E3,1.3796461E3,0E0,1.8875986E3,0E0,6.7778206E1,1.2534424E1,1.3828506E2,8.8897046E2,0E0,0E0,0E0,0E0,0E0,0E0,0E0,0E0,0E0,0E0,0E0],"parents":[2147483647,0,0,1,1,2,2,3,3,4,4,5,5,6,6,8,8,10,10,11,11,12,12,13,13],"right_children":[2,4,6,8,10,12,14,-1,16,-1,18,20,22,24,-1,-1,-1,-1,-1,-1,-1,-1,-1,-1,-1],"split_conditions":[6.733E-1,5.36E-1,6.836E-1,1.45E0,6.476E-1,1.69E0,6.47726E3,-1.8932098E0,5.49081E1,-3.2049694E0,3.19004E5,2.08523E5,2.52795E5,5.55E2,2.227307E0,1.9818115E0,-6.7323945E-2,2.0537518E-1,-5.5278015E-1,8.4121096E-1,3.0701432E0,-7.1673435E-1,4.6795198E-1,8.623891E-1,-1.2425481E0],"split_indices":[9,8,9,7,9,7,5,0,10,0,0,0,0,2,0,0,0,0,0,0,0,0,0,0,0],"split_type":[0,0,0,0,0,0,0,0,0,0,0,0,0,0,0,0,0,0,0,0,0,0,0,0,0],"sum_hessian":[7.1E1,5.6E1,1.5E1,5.1E1,5E0,6E0,9E0,3E0,4.8E1,2E0,3E0,4E0,2E0,8E0,1E0,4E0,4.4E1,2E0,1E0,1E0,3E0,1E0,1E0,2E0,6E0],"tree_param":{"num_deleted":"0","num_feature":"11","num_nodes":"25","size_leaf_vector":"1"}},{"base_weights":[1.5394041E-1,-3.0490046E0,4.252903E0,-5.2294993E0,1.8427948E1,1.5100916E1,-6.4853305E-1,2.878495E0,-1.6557898E1,2.0931864E0,5.458099E-1,6.669983E0,3.2549763E0,-2.6015959E0,2.1159425E0,-7.352016E-1,1.691336E0,8.451986E-1,-2.073445E0,1.7872375E0,-4.2877197E-3,8.877533E-1,-7.461115E-1],"categories":[],"categories_nodes":[],"categories_segments":[],"categories_sizes":[],"default_left":[0,0,0,0,0,0,0,0,0,0,0,0,0,0,0,0,0,0,0,0,0,0,0],"id":34,"left_children":[1,3,5,7,9,11,13,15,17,-1,-1,19,-1,21,-1,-1,-1,-1,-1,-1,-1,-1,-1],"loss_changes":[9.5823724E2,2.0164148E3,1.7112603E3,3.537984E3,1.5653442E1,1.2539941E3,1.0346714E3,3.426776E3,1.8465288E3,0E0,0E0,6.0236707E2,0E0,1.2934634E3,0E0,0E0,0E0,0E0,0E0,0E0,0E0,0E0,0E0],"parents":[2147483647,0,0,1,1,2,2,3,3,4,4,5,5,6,6,7,7,8,8,11,11,13,13],"right_children":[2,4,6,8,10,12,14,16,18,-1,-1,20,-1,22,-1,-1,-1,-1,-1,-1,-1,-1,-1],"split_conditions":[4.11405E3,4.09696E5,5.54E2,8.73E2,2.72651E5,5.48E2,6.47726E3,2.16562E5,5.66024E1,2.0931864E0,5.458099E-1,2.28275E5,3.2549763E0,4.853E-1,2.1159425E0,-7.352016E-1,1.691336E0,8.451986E-1,-2.073445E0,1.7872375E0,-4.2877197E-3,8.877533E-1,-7.461115E-1],"split_indices":[5,6,2,1,0,2,5,0,10,0,0,0,0,8,0,0,0,0,0,0,0,0,0],"split_type":[0,0,0,0,0,0,0,0,0,0,0,0,0,0,0,0,0,0,0,0,0,0,0],"sum_hessian":[7.1E1,4E1,3.1E1,3.7E1,3E0,9E0,2.2E1,2.2E1,1.5E1,2E0,1E0,7E0,2E0,2.1E1,1E0,1.3E1,9E0,2E0,1.3E1,2E0,5E0,6E0,1.5E1],"tree_param":{"num_deleted":"0","num_feature":"11","num_nodes":"23","size_leaf_vector":"1"}},{"base_weights":[2.7274704E-1,-3.763072E0,3.4160023E0,-1.4685283E1,4.482929E0,8.36767E0,-6.731334E0,-2.4048676E0,-3.6309059E0,7.9174786E0,-1.0375999E1,-1.5611104E0,1.0812618E1,-1.7825457E1,3.81744E0,9.0432435E-1,-6.397301E-1,-1.3436313E-1,1.7346543E0,-1.5556611E0,2.5829163E-1,1.6383457E0,-1.53046E-1,2.0356344E-1,-2.6177022E0,-2.2709899E-1,1.0473617E0],"categories":[],"categories_nodes":[],"categories_segments":[],"categories_sizes":[],"default_left":[0,0,0,0,0,0,0,0,0,0,0,0,0,0,0,0,0,0,0,0,0,0,0,0,0,0,0],"id":35,"left_children":[1,3,5,7,9,11,13,15,-1,17,19,-1,21,23,25,-1,-1,-1,-1,-1,-1,-1,-1,-1,-1,-1,-1],"loss_changes":[9.2621857E2,2.9478992E3,2.1164216E3,3.6303667E3,1.0517925E3,1.810349E3,1.706459E3,5.149105E2,0E0,1.4204849E3,3.087218E2,0E0,1.8128674E3,1.2143853E3,3.4799084E2,0E0,0E0,0E0,0E0,0E0,0E0,0E0,0E0,0E0,0E0,0E0,0E0],"parents":[2147483647,0,0,1,1,2,2,3,3,4,4,5,5,6,6,7,7,9,9,10,10,12,12,13,13,14,14],"right_children":[2,4,6,8,10,12,14,16,-1,18,20,-1,22,24,26,-1,-1,-1,-1,-1,-1,-1,-1,-1,-1,-1,-1],"split_conditions":[6.369E-1,3.93296E3,1.7E0,5.36E2,6.273E-1,1.41E0,1.72E0,3.44275E3,-3.6309059E0,9.17E2,2.82213E5,-1.5611104E0,2.7918E5,3.79375E3,5.309E-1,9.0432435E-1,-6.397301E-1,-1.3436313E-1,1.7346543E0,-1.5556611E0,2.5829163E-1,1.6383457E0,-1.53046E-1,2.0356344E-1,-2.6177022E0,-2.2709899E-1,1.0473617E0],"split_indices":[9,5,7,2,9,7,7,5,0,1,0,0,0,5,8,0,0,0,0,0,0,0,0,0,0,0,0],"split_type":[0,0,0,0,0,0,0,0,0,0,0,0,0,0,0,0,0,0,0,0,0,0,0,0,0,0,0],"sum_hessian":[7.1E1,3.1E1,4E1,1.3E1,1.8E1,2.7E1,1.3E1,9E0,4E0,1.5E1,3E0,2E0,2.5E1,6E0,7E0,2E0,7E0,8E0,7E0,2E0,1E0,1.7E1,8E0,2E0,4E0,4E0,3E0],"tree_param":{"num_deleted":"0","num_feature":"11","num_nodes":"27","size_leaf_vector":"1"}},{"base_weights":[1.7973454E-1,-9.501537E-1,1.080729E1,7.6792574E-1,-1.350222E1,2.123514E0,-2.32238E0,-2.2746825E0,1.4251551E1,-2.1720223E0,-4.227374E0,2.6286927E-1,-8.587799E-1,4.6841092E-3,-2.2713459E0,2.0648007E0,2.4462037E-1,5.331421E-1,-1.2377045E0],"categories":[],"categories_nodes":[],"categories_segments":[],"categories_sizes":[],"default_left":[0,0,0,0,0,0,0,0,0,0,0,0,0,0,0,0,0,0,0],"id":36,"left_children":[1,3,5,7,9,-1,11,13,15,-1,17,-1,-1,-1,-1,-1,-1,-1,-1],"loss_changes":[8.74841E2,1.4336882E3,1.0077156E3,2.4529155E3,5.1794617E2,0E0,1.4665686E2,2.3260696E3,7.801272E2,0E0,4.5549237E2,0E0,0E0,0E0,0E0,0E0,0E0,0E0,0E0],"parents":[2147483647,0,0,1,1,2,2,3,3,4,4,6,6,7,7,8,8,10,10],"right_children":[2,4,6,8,10,-1,12,14,16,-1,18,-1,-1,-1,-1,-1,-1,-1,-1],"split_conditions":[9.97E2,4.72004E3,1.024E3,4.09962E5,8.56189E1,2.123514E0,8.579E-1,4.02596E5,5.73E2,-2.1720223E0,9.6E2,2.6286927E-1,-8.587799E-1,4.6841092E-3,-2.2713459E0,2.0648007E0,2.4462037E-1,5.331421E-1,-1.2377045E0],"split_indices":[1,5,1,6,10,0,8,6,2,0,1,0,0,0,0,0,0,0,0],"split_type":[0,0,0,0,0,0,0,0,0,0,0,0,0,0,0,0,0,0,0],"sum_hessian":[7.1E1,6.5E1,6E0,5.8E1,7E0,3E0,3E0,4.8E1,1E1,3E0,4E0,2E0,1E0,4.4E1,4E0,6E0,4E0,2E0,2E0],"tree_param":{"num_deleted":"0","num_feature":"11","num_nodes":"19","size_leaf_vector":"1"}},{"base_weights":[1.4361912E-1,-2.3386295E0,4.625237E0,-6.2075806E-1,-2.7327158E0,1.2652696E1,-1.1827183E0,-3.3092973E0,9.120059E0,2.0776556E1,2.4200542E0,-3.8103943E0,1.9116211E0,-8.9633924E-1,6.215951E-1,1.3054488E0,-1.3144897E0,-6.118927E-2,2.5176625E0,-7.1902263E-1,9.022751E-1,1.3869324E-1,-9.9483293E-1],"categories":[],"categories_nodes":[],"categories_segments":[],"categories_sizes":[],"default_left":[0,0,0,0,0,0,0,0,0,0,0,0,0,0,0,0,0,0,0,0,0,0,0],"id":37,"left_children":[1,3,5,7,-1,9,11,13,15,17,19,21,-1,-1,-1,-1,-1,-1,-1,-1,-1,-1,-1],"loss_changes":[8.1178E2,2.0006093E3,1.2271658E3,1.2086666E3,0E0,8.641334E2,9.2626447E2,1.9945557E3,1.0475988E3,5.8006934E2,4.4559824E2,4.923105E2,0E0,0E0,0E0,0E0,0E0,0E0,0E0,0E0,0E0,0E0,0E0],"parents":[2147483647,0,0,1,1,2,2,3,3,5,5,6,6,7,7,8,8,9,9,10,10,11,11],"right_children":[2,4,6,8,-1,10,12,14,16,18,20,22,-1,-1,-1,-1,-1,-1,-1,-1,-1,-1,-1],"split_conditions":[6.579E-1,5.336E-1,5.54E2,9.51E2,-2.7327158E0,1.69E0,6.47726E3,6.354E-1,4.9586E3,2.04389E5,5.309E-1,1.63E0,1.9116211E0,-8.9633924E-1,6.215951E-1,1.3054488E0,-1.3144897E0,-6.118927E-2,2.5176625E0,-7.1902263E-1,9.022751E-1,1.3869324E-1,-9.9483293E-1],"split_indices":[9,8,2,1,0,7,5,9,5,0,8,7,0,0,0,0,0,0,0,0,0,0,0],"split_type":[0,0,0,0,0,0,0,0,0,0,0,0,0,0,0,0,0,0,0,0,0,0,0],"sum_hessian":[7.1E1,4.6E1,2.5E1,4.4E1,2E0,1E1,1.5E1,3.5E1,9E0,5E0,5E0,1.4E1,1E0,2.2E1,1.3E1,8E0,1E0,1E0,4E0,2E0,3E0,8E0,6E0],"tree_param":{"num_deleted":"0","num_feature":"11","num_nodes":"23","size_leaf_vector":"1"}},{"base_weights":[1.3868883E-1,-6.113904E0,1.7533475E0,3.8121338E0,-1.1458136E1,2.0412674E0,-3.9211115E-1,-4.3702087E-1,6.322644E0,-3.073175E0,-1.6535913E1,-2.686505E0,6.336194E-1,8.193955E-1,-5.8129884E-2,-4.5141807E-1,-6.077779E-2,-1.8107764E0,-4.3383333E-1,-4.9024493E-1,4.5420033E-1],"categories":[],"categories_nodes":[],"categories_segments":[],"categories_sizes":[],"default_left":[0,0,0,0,0,0,0,0,0,0,0,0,0,0,0,0,0,0,0,0,0],"id":38,"left_children":[1,3,5,7,9,-1,11,-1,13,15,17,-1,19,-1,-1,-1,-1,-1,-1,-1,-1],"loss_changes":[7.3761755E2,8.3938574E2,2.3299072E3,1.508824E2,3.749519E2,0E0,1.4561897E3,0E0,6.9360245E1,1.5019638E1,3.6479004E1,0E0,1.1473951E3,0E0,0E0,0E0,0E0,0E0,0E0,0E0,0E0],"parents":[2147483647,0,0,1,1,2,2,3,3,4,4,6,6,8,8,9,9,10,10,12,12],"right_children":[2,4,6,8,10,-1,12,-1,14,16,18,-1,20,-1,-1,-1,-1,-1,-1,-1,-1],"split_conditions":[2.16562E5,3.20514E5,2.27303E5,1.7895E5,5.28E2,2.0412674E0,5.16E2,-4.3702087E-1,5.235E-1,3.70579E3,1.49E0,-2.686505E0,6.369E-1,8.193955E-1,-5.8129884E-2,-4.5141807E-1,-6.077779E-2,-1.8107764E0,-4.3383333E-1,-4.9024493E-1,4.5420033E-1],"split_indices":[0,6,0,0,2,0,2,0,8,5,7,0,9,0,0,0,0,0,0,0,0],"split_type":[0,0,0,0,0,0,0,0,0,0,0,0,0,0,0,0,0,0,0,0,0],"sum_hessian":[7.1E1,1.4E1,5.7E1,5E0,9E0,5E0,5.2E1,1E0,4E0,4E0,5E0,1E0,5.1E1,3E0,1E0,2E0,2E0,4E0,1E0,2.1E1,3E1],"tree_param":{"num_deleted":"0","num_feature":"11","num_nodes":"21","size_leaf_vector":"1"}},{"base_weights":[8.156967E-2,-9.044134E-1,9.366328E0,6.105393E-1,-1.1964138E1,1.8508103E0,-2.1170273E0,-2.0289114E0,1.2312589E1,-1.9039764E0,-3.9108093E0,2.436025E-1,-7.8880924E-1,7.702569E-3,-2.0576563E0,1.811141E0,1.73172E-1,4.2521057E-1,-1.0770122E0],"categories":[],"categories_nodes":[],"categories_segments":[],"categories_sizes":[],"default_left":[0,0,0,0,0,0,0,0,0,0,0,0,0,0,0,0,0,0,0],"id":39,"left_children":[1,3,5,7,9,-1,11,13,15,-1,17,-1,-1,-1,-1,-1,-1,-1,-1],"loss_changes":[6.6760333E2,1.113132E3,7.740299E2,1.847313E3,3.8139795E2,0E0,1.2431943E2,1.915534E3,6.435586E2,0E0,3.257556E2,0E0,0E0,0E0,0E0,0E0,0E0,0E0,0E0],"parents":[2147483647,0,0,1,1,2,2,3,3,4,4,6,6,7,7,8,8,10,10],"right_children":[2,4,6,8,10,-1,12,14,16,-1,18,-1,-1,-1,-1,-1,-1,-1,-1],"split_conditions":[9.97E2,4.72004E3,1.024E3,4.09962E5,8.56189E1,1.8508103E0,8.579E-1,4.02596E5,5.73E2,-1.9039764E0,9.6E2,2.436025E-1,-7.8880924E-1,7.702569E-3,-2.0576563E0,1.811141E0,1.73172E-1,4.2521057E-1,-1.0770122E0],"split_indices":[1,5,1,6,10,0,8,6,2,0,1,0,0,0,0,0,0,0,0],"split_type":[0,0,0,0,0,0,0,0,0,0,0,0,0,0,0,0,0,0,0],"sum_hessian":[7.1E1,6.5E1,6E0,5.8E1,7E0,3E0,3E0,4.8E1,1E1,3E0,4E0,2E0,1E0,4.4E1,4E0,6E0,4E0,2E0,2E0],"tree_param":{"num_deleted":"0","num_feature":"11","num_nodes":"19","size_leaf_vector":"1"}},{"base_weights":[5.5144414E-2,-5.671857E0,1.5353147E0,3.4785511E0,-1.0594915E1,1.8705215E1,-4.3741593E-1,-4.1555482E-1,5.8364806E0,-2.8744445E0,-1.5262822E1,2.0203807E0,5.606125E-1,-2.552565E0,5.35928E-1,7.573639E-1,-5.5607606E-2,-4.2183635E-1,-5.723775E-2,-1.6665283E0,-4.1252595E-1,-4.567967E-1,4.140759E-1],"categories":[],"categories_nodes":[],"categories_segments":[],"categories_sizes":[],"default_left":[0,0,0,0,0,0,0,0,0,0,0,0,0,0,0,0,0,0,0,0,0,0,0],"id":40,"left_children":[1,3,5,7,9,11,13,-1,15,17,19,-1,-1,-1,21,-1,-1,-1,-1,-1,-1,-1,-1],"loss_changes":[6.1904755E2,7.125749E2,1.9727341E3,1.3225778E2,3.1651233E2,4.5161133E0,1.3079125E3,0E0,5.973593E1,1.3054462E1,2.4971313E1,0E0,0E0,0E0,9.7564606E2,0E0,0E0,0E0,0E0,0E0,0E0,0E0,0E0],"parents":[2147483647,0,0,1,1,2,2,3,3,4,4,5,5,6,6,8,8,9,9,10,10,14,14],"right_children":[2,4,6,8,10,12,14,-1,16,18,20,-1,-1,-1,22,-1,-1,-1,-1,-1,-1,-1,-1],"split_conditions":[2.16562E5,3.20514E5,2.27303E5,1.7895E5,5.28E2,2.26307E5,5.16E2,-4.1555482E-1,5.235E-1,3.70579E3,1.49E0,2.0203807E0,5.606125E-1,-2.552565E0,6.369E-1,7.573639E-1,-5.5607606E-2,-4.2183635E-1,-5.723775E-2,-1.6665283E0,-4.1252595E-1,-4.567967E-1,4.140759E-1],"split_indices":[0,6,0,0,2,0,2,0,8,5,7,0,0,0,9,0,0,0,0,0,0,0,0],"split_type":[0,0,0,0,0,0,0,0,0,0,0,0,0,0,0,0,0,0,0,0,0,0,0],"sum_hessian":[7.1E1,1.4E1,5.7E1,5E0,9E0,5E0,5.2E1,1E0,4E0,4E0,5E0,4E0,1E0,1E0,5.1E1,3E0,1E0,2E0,2E0,4E0,1E0,2.1E1,3E1],"tree_param":{"num_deleted":"0","num_feature":"11","num_nodes":"23","size_leaf_vector":"1"}},{"base_weights":[1.7879486E-2,-4.5513186E-1,1.6800842E0,2.9267142E0,-2.8598995E0,-3.6359694E0,1.1788375E1,-1.4253274E1,1.1459446E0,5.457589E-2,-1.4617615E0,1.5377197E0,2.9708192E-1,5.21474E-1,-2.6122816E0,8.9778376E-1,-4.002083E-1],"categories":[],"categories_nodes":[],"categories_segments":[],"categories_sizes":[],"default_left":[0,0,0,0,0,0,0,0,0,0,0,0,0,0,0,0,0],"id":41,"left_children":[1,3,-1,5,7,9,11,13,15,-1,-1,-1,-1,-1,-1,-1,-1],"loss_changes":[5.792209E2,5.857815E2,0E0,1.7875505E3,1.9332168E3,8.345783E2,3.656975E2,2.678064E3,1.3261316E3,0E0,0E0,0E0,0E0,0E0,0E0,0E0,0E0],"parents":[2147483647,0,0,1,1,3,3,4,4,5,5,6,6,7,7,8,8],"right_children":[2,4,-1,6,8,10,12,14,16,-1,-1,-1,-1,-1,-1,-1,-1],"split_conditions":[6.47726E3,5.41E2,1.6800842E0,5.29E2,3.91298E3,2.31052E5,5.268E-1,5.66024E1,2.72651E5,5.457589E-2,-1.4617615E0,1.5377197E0,2.9708192E-1,5.21474E-1,-2.6122816E0,8.9778376E-1,-4.002083E-1],"split_indices":[5,2,0,2,5,0,8,10,0,0,0,0,0,0,0,0,0],"split_type":[0,0,0,0,0,0,0,0,0,0,0,0,0,0,0,0,0],"sum_hessian":[7.1E1,7E1,1E0,2.9E1,4.1E1,1.7E1,1.2E1,1E1,3.1E1,1.3E1,4E0,8E0,4E0,4E0,6E0,1.2E1,1.9E1],"tree_param":{"num_deleted":"0","num_feature":"11","num_nodes":"17","size_leaf_vector":"1"}},{"base_weights":[2.3239136E-2,-8.583397E-1,8.331948E0,5.343524E-1,-1.1022152E1,1.663292E1,-2.0520096E0,-1.8547207E0,1.112801E1,2.9658508E-1,-1.3444131E1,4.615204E-1,1.9100424E0,2.264394E-1,-7.5006104E-1,1.6520182E-3,-1.8324946E0,1.88932E0,3.99173E-1,2.411026E-1,-1.6488495E0],"categories":[],"categories_nodes":[],"categories_segments":[],"categories_sizes":[],"default_left":[0,0,0,0,0,0,0,0,0,0,0,0,0,0,0,0,0,0,0,0,0],"id":42,"left_children":[1,3,5,7,9,11,13,15,17,-1,19,-1,-1,-1,-1,-1,-1,-1,-1,-1,-1],"loss_changes":[5.3453595E2,9.401238E2,6.375094E2,1.5138717E3,3.1090253E2,3.0462769E1,1.11057785E2,1.5104708E3,5.341439E2,0E0,3.7763623E2,0E0,0E0,0E0,0E0,0E0,0E0,0E0,0E0,0E0,0E0],"parents":[2147483647,0,0,1,1,2,2,3,3,4,4,5,5,6,6,7,7,8,8,10,10],"right_children":[2,4,6,8,10,12,14,16,18,-1,20,-1,-1,-1,-1,-1,-1,-1,-1,-1,-1],"split_conditions":[9.97E2,4.72004E3,1.024E3,4.09962E5,2.64632E5,5.3E2,8.579E-1,4.02596E5,5.65E2,2.9658508E-1,5.3E2,4.615204E-1,1.9100424E0,2.264394E-1,-7.5006104E-1,1.6520182E-3,-1.8324946E0,1.88932E0,3.99173E-1,2.411026E-1,-1.6488495E0],"split_indices":[1,5,1,6,0,2,8,6,2,0,2,0,0,0,0,0,0,0,0,0,0],"split_type":[0,0,0,0,0,0,0,0,0,0,0,0,0,0,0,0,0,0,0,0,0],"sum_hessian":[7.1E1,6.5E1,6E0,5.8E1,7E0,3E0,3E0,4.8E1,1E1,1E0,6E0,1E0,2E0,2E0,1E0,4.4E1,4E0,4E0,6E0,1E0,5E0],"tree_param":{"num_deleted":"0","num_feature":"11","num_nodes":"21","size_leaf_vector":"1"}},{"base_weights":[3.7506104E-2,-1.9786831E0,3.6807134E0,-9.979248E-2,-1.7741405E1,1.0149112E1,-9.9635506E-1,-4.997406E0,4.3762803E0,-4.0135193E-1,-2.017E0,1.681108E1,1.7956238E0,-3.063552E0,1.5005798E0,-1.1483743E0,6.978359E-1,9.099636E-1,-3.9822322E-1,2.7736512E-1,2.3136384E0,-5.375458E-1,6.7250293E-1,1.0328776E-1,-7.892739E-1],"categories":[],"categories_nodes":[],"categories_segments":[],"categories_sizes":[],"default_left":[0,0,0,0,0,0,0,0,0,0,0,0,0,0,0,0,0,0,0,0,0,0,0,0,0],"id":43,"left_children":[1,3,5,7,9,11,13,15,17,-1,-1,19,21,23,-1,-1,-1,-1,-1,-1,-1,-1,-1,-1,-1],"loss_changes":[5.361514E2,1.3902019E3,7.9669385E2,9.645193E2,8.574451E1,5.8197107E2,5.752446E2,1.7113936E3,9.44282E2,0E0,0E0,4.685736E2,2.4824512E2,3.0488864E2,0E0,0E0,0E0,0E0,0E0,0E0,0E0,0E0,0E0,0E0,0E0],"parents":[2147483647,0,0,1,1,2,2,3,3,4,4,5,5,6,6,7,7,8,8,11,11,12,12,13,13],"right_children":[2,4,6,8,10,12,14,16,18,-1,-1,20,22,24,-1,-1,-1,-1,-1,-1,-1,-1,-1,-1,-1],"split_conditions":[6.579E-1,5.299E-1,5.54E2,3.93296E3,2.08796E5,1.69E0,6.47726E3,6.333E-1,7.75985E1,-4.0135193E-1,-2.017E0,2.08523E5,5.309E-1,1.63E0,1.5005798E0,-1.1483743E0,6.978359E-1,9.099636E-1,-3.9822322E-1,2.7736512E-1,2.3136384E0,-5.375458E-1,6.7250293E-1,1.0328776E-1,-7.892739E-1],"split_indices":[9,8,2,5,0,7,5,9,10,0,0,0,8,7,0,0,0,0,0,0,0,0,0,0,0],"split_type":[0,0,0,0,0,0,0,0,0,0,0,0,0,0,0,0,0,0,0,0,0,0,0,0,0],"sum_hessian":[7.1E1,4.6E1,2.5E1,4.2E1,4E0,1E1,1.5E1,2E1,2.2E1,1E0,3E0,5E0,5E0,1.4E1,1E0,1.3E1,7E0,1.4E1,8E0,2E0,3E0,2E0,3E0,8E0,6E0],"tree_param":{"num_deleted":"0","num_feature":"11","num_nodes":"25","size_leaf_vector":"1"}},{"base_weights":[5.0187007E-2,-1.2444184E0,5.8494306E-1,1.0815816E1,-3.6844435E-1,1.6040512E1,2.4428304E-1,-3.8753357E0,2.5641997E0,4.9220583E-1,1.8105978E0,-6.950684E-2,1.0614929E-1,1.261156E-2,-2.9916298E0,-2.1222076E0,3.8501525E-1],"categories":[],"categories_nodes":[],"categories_segments":[],"categories_sizes":[],"default_left":[0,0,0,0,0,0,0,0,0,0,0,0,0,0,0,0,0],"id":44,"left_children":[1,-1,3,5,7,9,11,13,15,-1,-1,-1,-1,-1,-1,-1,-1],"loss_changes":[4.8834283E2,0E0,6.8676404E2,3.2747992E2,6.7842725E2,2.7404785E0,3.0407522E0,3.129822E3,1.1828773E3,0E0,0E0,0E0,0E0,0E0,0E0,0E0,0E0],"parents":[2147483647,0,0,2,2,3,3,4,4,5,5,6,6,7,7,8,8],"right_children":[2,-1,4,6,8,10,12,14,16,-1,-1,-1,-1,-1,-1,-1,-1],"split_conditions":[1.41E0,-1.2444184E0,5.49081E1,5.16E-1,2.46819E5,2.04028E5,2.04389E5,2.4093E5,3.77033E3,4.9220583E-1,1.8105978E0,-6.950684E-2,1.0614929E-1,1.261156E-2,-2.9916298E0,-2.1222076E0,3.8501525E-1],"split_indices":[7,0,10,8,0,0,0,0,5,0,0,0,0,0,0,0,0],"split_type":[0,0,0,0,0,0,0,0,0,0,0,0,0,0,0,0,0],"sum_hessian":[7.1E1,2E0,6.9E1,5E0,6.4E1,3E0,2E0,2.9E1,3.5E1,1E0,2E0,1E0,1E0,2.6E1,3E0,1E0,3.4E1],"tree_param":{"num_deleted":"0","num_feature":"11","num_nodes":"17","size_leaf_vector":"1"}},{"base_weights":[-5.1227147E-3,-1.1614574E0,4.9249834E-1,1.01241455E1,-4.0415367E-1,1.5012162E0,2.32076E-1,-2.8505266E0,3.1444645E0,-6.603088E-2,1.0084229E-1,-6.2039346E-1,7.494751E-1,7.5599974E-1,-3.9654014E-1],"categories":[],"categories_nodes":[],"categories_segments":[],"categories_sizes":[],"default_left":[0,0,0,0,0,0,0,0,0,0,0,0,0,0,0],"id":45,"left_children":[1,-1,3,5,7,-1,9,11,13,-1,-1,-1,-1,-1,-1],"loss_changes":[4.2167188E2,0E0,6.0862823E2,2.866316E2,5.732442E2,0E0,2.7442708E0,1.3994827E3,8.7761224E2,0E0,0E0,0E0,0E0,0E0,0E0],"parents":[2147483647,0,0,2,2,3,3,4,4,6,6,7,7,8,8],"right_children":[2,-1,4,6,8,-1,10,12,14,-1,-1,-1,-1,-1,-1],"split_conditions":[1.41E0,-1.1614574E0,5.49081E1,5.16E-1,6.482E-1,1.5012162E0,2.04389E5,9.51E2,1.7E0,-6.603088E-2,1.0084229E-1,-6.2039346E-1,7.494751E-1,7.5599974E-1,-3.9654014E-1],"split_indices":[7,0,10,8,9,0,0,1,7,0,0,0,0,0,0],"split_type":[0,0,0,0,0,0,0,0,0,0,0,0,0,0,0],"sum_hessian":[7.1E1,2E0,6.9E1,5E0,6.4E1,3E0,2E0,3.8E1,2.6E1,1E0,1E0,2.9E1,9E0,1.6E1,1E1],"tree_param":{"num_deleted":"0","num_feature":"11","num_nodes":"15","size_leaf_vector":"1"}},{"base_weights":[7.381439E-3,2.8408844E0,-1.9696528E0,-2.7056105E0,1.0302117E1,-1.8994391E0,2.635099E-1,8.641968E-1,-1.2159948E1,1.3369527E1,2.7203553E0,-1.2037214E0,2.0132272E0,-6.348926E-1,4.3843386E-1,-1.6432571E0,2.465271E-1,2.5552368E-2,1.7079881E0,-5.65773E-1,6.2293094E-1,1.7883393E0,-1.2279134E-1],"categories":[],"categories_nodes":[],"categories_segments":[],"categories_sizes":[],"default_left":[0,0,0,0,0,0,0,0,0,0,0,0,0,0,0,0,0,0,0,0,0,0,0],"id":46,"left_children":[1,3,5,7,9,-1,11,13,15,17,19,-1,21,-1,-1,-1,-1,-1,-1,-1,-1,-1,-1],"loss_changes":[4.0893466E2,1.269384E3,1.6398225E3,6.1801154E2,2.6596313E2,0E0,8.636224E2,3.8331277E2,3.5295093E2,4.3355408E2,1.8223532E2,0E0,1.8222697E3,0E0,0E0,0E0,0E0,0E0,0E0,0E0,0E0,0E0,0E0],"parents":[2147483647,0,0,1,1,2,2,3,3,4,4,6,6,7,7,8,8,9,9,10,10,12,12],"right_children":[2,4,6,8,10,-1,12,14,16,18,20,-1,22,-1,-1,-1,-1,-1,-1,-1,-1,-1,-1],"split_conditions":[5.41E2,5.29E2,5.48E2,2.31052E5,5.268E-1,-1.8994391E0,2.31763E5,6.119E-1,9.16E2,2.10971E5,2.35938E5,-1.2037214E0,3.92056E5,-6.348926E-1,4.3843386E-1,-1.6432571E0,2.465271E-1,2.5552368E-2,1.7079881E0,-5.65773E-1,6.2293094E-1,1.7883393E0,-1.2279134E-1],"split_indices":[2,2,2,0,8,0,0,9,1,0,0,0,6,0,0,0,0,0,0,0,0,0,0],"split_type":[0,0,0,0,0,0,0,0,0,0,0,0,0,0,0,0,0,0,0,0,0,0,0],"sum_hessian":[7.1E1,2.9E1,4.2E1,1.7E1,1.2E1,4E0,3.8E1,1.3E1,4E0,8E0,4E0,4E0,3.4E1,4E0,9E0,3E0,1E0,2E0,6E0,1E0,3E0,5E0,2.9E1],"tree_param":{"num_deleted":"0","num_feature":"11","num_nodes":"23","size_leaf_vector":"1"}},{"base_weights":[-1.05764605E-2,-3.9794794E-1,1.3746399E0,2.5633738E0,-2.5037029E0,-2.5235646E0,9.409644E0,-1.7474835E0,-4.6793005E-1,8.2442366E-2,-1.1393219E0,1.2225178E0,2.4597536E-1,9.017134E-1,-2.528165E-1],"categories":[],"categories_nodes":[],"categories_segments":[],"categories_sizes":[],"default_left":[0,0,0,0,0,0,0,0,0,0,0,0,0,0,0],"id":47,"left_children":[1,3,-1,5,7,9,11,-1,13,-1,-1,-1,-1,-1,-1],"loss_changes":[3.8916266E2,4.4916098E2,0E0,1.0685426E3,1.2718916E3,5.4391187E2,2.2430872E2,0E0,7.653722E2,0E0,0E0,0E0,0E0,0E0,0E0],"parents":[2147483647,0,0,1,1,3,3,4,4,5,5,6,6,8,8],"right_children":[2,4,-1,6,8,10,12,-1,14,-1,-1,-1,-1,-1,-1],"split_conditions":[6.47726E3,5.41E2,1.3746399E0,5.29E2,5.48E2,5.275E-1,5.268E-1,-1.7474835E0,6.205E-1,8.2442366E-2,-1.1393219E0,1.2225178E0,2.4597536E-1,9.017134E-1,-2.528165E-1],"split_indices":[5,2,0,2,2,8,8,0,9,0,0,0,0,0,0],"split_type":[0,0,0,0,0,0,0,0,0,0,0,0,0,0,0],"sum_hessian":[7.1E1,7E1,1E0,2.9E1,4.1E1,1.7E1,1.2E1,4E0,3.7E1,1.3E1,4E0,8E0,4E0,6E0,3.1E1],"tree_param":{"num_deleted":"0","num_feature":"11","num_nodes":"15","size_leaf_vector":"1"}},{"base_weights":[2.8822156E-5,-7.208275E-1,6.79667E0,5.332921E-1,-9.879856E0,1.35008545E1,-1.6066818E0,-1.3364744E0,8.81377E0,2.059967E-1,-1.1879827E1,3.619507E-1,1.5588135E0,2.2160034E-1,-6.537369E-1,2.9574586E-2,-1.5759162E0,1.7487946E0,3.374962E-1,1.5255432E-1,-1.4368312E0],"categories":[],"categories_nodes":[],"categories_segments":[],"categories_sizes":[],"default_left":[0,0,0,0,0,0,0,0,0,0,0,0,0,0,0,0,0,0,0,0,0],"id":48,"left_children":[1,3,5,7,9,11,13,15,17,-1,19,-1,-1,-1,-1,-1,-1,-1,-1,-1,-1],"loss_changes":[3.5765616E2,7.6337897E2,4.160549E2,9.252505E2,2.1550641E2,2.6079163E1,8.9880684E1,1.1581698E3,4.5992786E2,0E0,2.5543292E2,0E0,0E0,0E0,0E0,0E0,0E0,0E0,0E0,0E0,0E0],"parents":[2147483647,0,0,1,1,2,2,3,3,4,4,5,5,6,6,7,7,8,8,10,10],"right_children":[2,4,6,8,10,12,14,16,18,-1,20,-1,-1,-1,-1,-1,-1,-1,-1,-1,-1],"split_conditions":[9.97E2,4.72004E3,1.024E3,4.09962E5,2.64632E5,5.3E2,8.579E-1,4.02596E5,5.61E2,2.059967E-1,5.3E2,3.619507E-1,1.5588135E0,2.2160034E-1,-6.537369E-1,2.9574586E-2,-1.5759162E0,1.7487946E0,3.374962E-1,1.5255432E-1,-1.4368312E0],"split_indices":[1,5,1,6,0,2,8,6,2,0,2,0,0,0,0,0,0,0,0,0,0],"split_type":[0,0,0,0,0,0,0,0,0,0,0,0,0,0,0,0,0,0,0,0,0],"sum_hessian":[7.1E1,6.5E1,6E0,5.8E1,7E0,3E0,3E0,4.8E1,1E1,1E0,6E0,1E0,2E0,2E0,1E0,4.4E1,4E0,3E0,7E0,1E0,5E0],"tree_param":{"num_deleted":"0","num_feature":"11","num_nodes":"21","size_leaf_vector":"1"}},{"base_weights":[1.3221317E-2,-1.5495447E0,3.0132031E0,-5.6580976E-2,-1.4377716E1,8.728369E0,-1.3787984E0,-4.039234E0,3.430598E0,-3.2852173E-1,-1.6329536E0,1.4094884E1,1.9071249E0,-8.006149E0,2.735492E0,5.2459337E-2,-1.5536236E0,7.164192E-1,-3.5880804E-1,2.1755879E-1,1.9510635E0,-3.4412333E-1,5.4416126E-1,-1.2136942E-1,-1.1098953E0,1.6373758E0,-2.7207947E-1],"categories":[],"categories_nodes":[],"categories_segments":[],"categories_sizes":[],"default_left":[0,0,0,0,0,0,0,0,0,0,0,0,0,0,0,0,0,0,0,0,0,0,0,0,0,0,0],"id":49,"left_children":[1,3,5,7,9,11,13,15,17,-1,-1,19,21,23,25,-1,-1,-1,-1,-1,-1,-1,-1,-1,-1,-1,-1],"loss_changes":[3.422245E2,9.184821E2,6.3956006E2,6.2493884E2,5.460681E1,3.757887E2,4.3090347E2,1.1100271E3,6.546232E2,0E0,0E0,3.4486462E2,1.3214807E2,1.1257562E2,7.886926E2,0E0,0E0,0E0,0E0,0E0,0E0,0E0,0E0,0E0,0E0,0E0,0E0],"parents":[2147483647,0,0,1,1,2,2,3,3,4,4,5,5,6,6,7,7,8,8,11,11,12,12,13,13,14,14],"right_children":[2,4,6,8,10,12,14,16,18,-1,-1,20,22,24,26,-1,-1,-1,-1,-1,-1,-1,-1,-1,-1,-1,-1],"split_conditions":[6.582E-1,5.299E-1,5.54E2,3.93296E3,2.08796E5,1.69E0,5.74E2,2.45033E5,7.75985E1,-3.2852173E-1,-1.6329536E0,2.08523E5,5.309E-1,5.57E2,4.49168E5,5.2459337E-2,-1.5536236E0,7.164192E-1,-3.5880804E-1,2.1755879E-1,1.9510635E0,-3.4412333E-1,5.4416126E-1,-1.2136942E-1,-1.1098953E0,1.6373758E0,-2.7207947E-1],"split_indices":[9,8,2,5,0,7,2,0,10,0,0,0,8,2,6,0,0,0,0,0,0,0,0,0,0,0,0],"split_type":[0,0,0,0,0,0,0,0,0,0,0,0,0,0,0,0,0,0,0,0,0,0,0,0,0,0,0],"sum_hessian":[7.1E1,4.7E1,2.4E1,4.3E1,4E0,1E1,1.4E1,2E1,2.3E1,1E0,3E0,5E0,5E0,5E0,9E0,1.5E1,5E0,1.5E1,8E0,2E0,3E0,2E0,3E0,2E0,3E0,2E0,7E0],"tree_param":{"num_deleted":"0","num_feature":"11","num_nodes":"27","size_leaf_vector":"1"}},{"base_weights":[3.531562E-3,-4.2338095E0,1.0993347E0,2.5270946E0,-7.866971E0,1.1498115E1,-7.944324E-1,-2.8625795E-1,4.177545E0,-2.2825685E0,-1.1209477E0,6.8863523E-1,2.000797E0,-8.237025E0,2.0431552E0,5.422142E-1,-4.0042114E-2,-3.1455156E-1,5.8461E-2,1.2011353E0,-5.144882E-1,2.4827614E-1,-1.9311494E0,-1.8098205E0,3.1053653E-1],"categories":[],"categories_nodes":[],"categories_segments":[],"categories_sizes":[],"default_left":[0,0,0,0,0,0,0,0,0,0,0,0,0,0,0,0,0,0,0,0,0,0,0,0,0],"id":50,"left_children":[1,3,5,7,9,11,13,-1,15,17,-1,19,-1,21,23,-1,-1,-1,-1,-1,-1,-1,-1,-1,-1],"loss_changes":[3.389714E2,3.883324E2,1.1513209E3,6.533089E1,1.610727E2,8.141057E2,1.07278E3,0E0,3.0659752E1,1.4210012E1,0E0,3.920533E2,0E0,1.7099688E3,8.477928E2,0E0,0E0,0E0,0E0,0E0,0E0,0E0,0E0,0E0,0E0],"parents":[2147483647,0,0,1,1,2,2,3,3,4,4,5,5,6,6,8,8,9,9,11,11,13,13,14,14],"right_children":[2,4,6,8,10,12,14,-1,16,18,-1,20,-1,22,24,-1,-1,-1,-1,-1,-1,-1,-1,-1,-1],"split_conditions":[2.16562E5,3.20514E5,8.66E2,1.7895E5,5.28E2,1.54E0,2.46819E5,-2.8625795E-1,5.235E-1,8.21E2,-1.1209477E0,2.20658E5,2.000797E0,6.153E-1,3.77033E3,5.422142E-1,-4.0042114E-2,-3.1455156E-1,5.8461E-2,1.2011353E0,-5.144882E-1,2.4827614E-1,-1.9311494E0,-1.8098205E0,3.1053653E-1],"split_indices":[0,6,1,0,2,7,0,0,8,1,0,0,0,9,5,0,0,0,0,0,0,0,0,0,0],"split_type":[0,0,0,0,0,0,0,0,0,0,0,0,0,0,0,0,0,0,0,0,0,0,0,0,0],"sum_hessian":[7.1E1,1.4E1,5.7E1,5E0,9E0,8E0,4.9E1,1E0,4E0,4E0,5E0,4E0,4E0,1.3E1,3.6E1,3E0,1E0,3E0,1E0,1E0,3E0,7E0,6E0,1E0,3.5E1],"tree_param":{"num_deleted":"0","num_feature":"11","num_nodes":"25","size_leaf_vector":"1"}},{"base_weights":[-1.982583E-2,-2.2877665E0,1.7507577E0,4.0417603E-1,-1.0414116E1,6.253701E0,-2.8355553E0,-9.3648205E0,3.9820075E0,-2.0526016E0,-6.0372705E0,3.5614848E0,1.1129351E1,-6.480351E0,5.3798E0,-1.214948E0,3.6715698E-1,-1.23794556E-1,1.549823E0,-7.4808604E-1,1.3121338E-1,1.0474889E0,-9.427063E-2,1.4277344E0,2.1729127E-1,-1.7424663E0,-9.1653995E-2,5.5537414E-2,6.0913086E-1],"categories":[],"categories_nodes":[],"categories_segments":[],"categories_sizes":[],"default_left":[0,0,0,0,0,0,0,0,0,0,0,0,0,0,0,0,0,0,0,0,0,0,0,0,0,0,0,0,0],"id":51,"left_children":[1,3,5,7,9,11,13,15,17,-1,19,21,23,25,27,-1,-1,-1,-1,-1,-1,-1,-1,-1,-1,-1,-1,-1,-1],"loss_changes":[2.9312698E2,7.0423047E2,8.64461E2,9.110863E2,2.3014465E2,2.3601538E2,6.6367206E2,2.9872107E2,1.1613546E3,0E0,8.408255E1,4.769641E2,1.6634015E2,8.974109E2,2.0645401E1,0E0,0E0,0E0,0E0,0E0,0E0,0E0,0E0,0E0,0E0,0E0,0E0,0E0,0E0],"parents":[2147483647,0,0,1,1,2,2,3,3,4,4,5,5,6,6,7,7,8,8,10,10,11,11,12,12,13,13,14,14],"right_children":[2,4,6,8,10,12,14,16,18,-1,20,22,24,26,28,-1,-1,-1,-1,-1,-1,-1,-1,-1,-1,-1,-1,-1,-1],"split_conditions":[1.62E0,1.6E0,1.71E0,6.225E-1,6.04797E1,1.68E0,1.76E0,1.57E0,1.54E0,-2.0526016E0,2.98573E5,8.93E2,4.49168E5,2.5234E5,2.11226E5,-1.214948E0,3.6715698E-1,-1.23794556E-1,1.549823E0,-7.4808604E-1,1.3121338E-1,1.0474889E0,-9.427063E-2,1.4277344E0,2.1729127E-1,-1.7424663E0,-9.1653995E-2,5.5537414E-2,6.0913086E-1],"split_indices":[7,7,7,9,10,7,7,7,7,0,0,1,6,0,0,0,0,0,0,0,0,0,0,0,0,0,0,0,0],"split_type":[0,0,0,0,0,0,0,0,0,0,0,0,0,0,0,0,0,0,0,0,0,0,0,0,0,0,0,0,0],"sum_hessian":[7.1E1,3.1E1,4E1,2.4E1,7E0,2E1,2E1,6E0,1.8E1,1E0,6E0,1.4E1,6E0,1.4E1,6E0,5E0,1E0,1.3E1,5E0,5E0,1E0,5E0,9E0,4E0,2E0,4E0,1E1,1E0,5E0],"tree_param":{"num_deleted":"0","num_feature":"11","num_nodes":"29","size_leaf_vector":"1"}},{"base_weights":[-2.7044084E-2,-9.0940964E-1,3.619302E-1,-2.058259E0,2.3384461E0,-7.7989783E0,2.2800744E0,5.668726E0,-4.0133905E0,-9.8423466E-2,-1.9868672E0,4.5799923E-1,-7.489616E-1,1.0125985E0,4.3254443E-2,-9.8517066E-1,1.5968095E-1],"categories":[],"categories_nodes":[],"categories_segments":[],"categories_sizes":[],"default_left":[0,0,0,0,0,0,0,0,0,0,0,0,0,0,0,0,0],"id":52,"left_children":[1,-1,3,5,7,9,11,13,15,-1,-1,-1,-1,-1,-1,-1,-1],"loss_changes":[2.572246E2,0E0,3.396611E2,8.147472E2,8.4773315E2,1.1319705E3,4.6122263E2,6.024345E2,4.74289E2,0E0,0E0,0E0,0E0,0E0,0E0,0E0,0E0],"parents":[2147483647,0,0,2,2,3,3,4,4,5,5,6,6,7,7,8,8],"right_children":[2,-1,4,6,8,10,12,14,16,-1,-1,-1,-1,-1,-1,-1,-1],"split_conditions":[1.41E0,-9.0940964E-1,6.369E-1,3.93296E3,1.7E0,5.36E2,6.273E-1,5.56E2,1.72E0,-9.8423466E-2,-1.9868672E0,4.5799923E-1,-7.489616E-1,1.0125985E0,4.3254443E-2,-9.8517066E-1,1.5968095E-1],"split_indices":[7,0,9,5,7,2,9,2,7,0,0,0,0,0,0,0,0],"split_type":[0,0,0,0,0,0,0,0,0,0,0,0,0,0,0,0,0],"sum_hessian":[7.1E1,2E0,6.9E1,3.1E1,3.8E1,1.3E1,1.8E1,2.5E1,1.3E1,9E0,4E0,1.5E1,3E0,1.3E1,1.2E1,6E0,7E0],"tree_param":{"num_deleted":"0","num_feature":"11","num_nodes":"17","size_leaf_vector":"1"}},{"base_weights":[-6.677119E-2,-2.1850166E0,1.5881221E0,2.0277344E-1,-9.3737335E0,5.4745555E0,-2.3739362E0,-8.43379E0,3.373993E0,-1.8506272E0,-5.425332E0,1.2586396E0,8.531606E0,-5.540898E0,4.7515435E0,-1.0925751E0,3.2589874E-1,-1.382638E-1,1.3910466E0,-6.737854E-1,1.2248993E-1,8.520716E-1,-5.0028634E-1,2.0617797E0,4.052588E-1,-1.5219568E0,-6.377841E-2,6.855245E-1,2.5390136E-1],"categories":[],"categories_nodes":[],"categories_segments":[],"categories_sizes":[],"default_left":[0,0,0,0,0,0,0,0,0,0,0,0,0,0,0,0,0,0,0,0,0,0,0,0,0,0,0,0,0],"id":53,"left_children":[1,3,5,7,9,11,13,15,17,-1,19,21,23,25,27,-1,-1,-1,-1,-1,-1,-1,-1,-1,-1,-1,-1,-1,-1],"loss_changes":[2.5586394E2,5.511855E2,6.4432556E2,7.1316644E2,1.8806873E2,2.5991547E2,5.002163E2,2.3957251E2,9.714774E2,0E0,6.9353226E1,4.9734308E2,5.660557E2,7.0212756E2,1.5175964E1,0E0,0E0,0E0,0E0,0E0,0E0,0E0,0E0,0E0,0E0,0E0,0E0,0E0,0E0],"parents":[2147483647,0,0,1,1,2,2,3,3,4,4,5,5,6,6,7,7,8,8,10,10,11,11,12,12,13,13,14,14],"right_children":[2,4,6,8,10,12,14,16,18,-1,20,22,24,26,28,-1,-1,-1,-1,-1,-1,-1,-1,-1,-1,-1,-1,-1,-1],"split_conditions":[1.62E0,1.6E0,1.71E0,6.225E-1,6.04797E1,2.46819E5,1.76E0,1.57E0,1.54E0,-1.8506272E0,2.98573E5,3.90017E3,5.54E2,2.5234E5,9.59E2,-1.0925751E0,3.2589874E-1,-1.382638E-1,1.3910466E0,-6.737854E-1,1.2248993E-1,8.520716E-1,-5.0028634E-1,2.0617797E0,4.052588E-1,-1.5219568E0,-6.377841E-2,6.855245E-1,2.5390136E-1],"split_indices":[7,7,7,9,10,0,7,7,7,0,0,5,2,0,1,0,0,0,0,0,0,0,0,0,0,0,0,0,0],"split_type":[0,0,0,0,0,0,0,0,0,0,0,0,0,0,0,0,0,0,0,0,0,0,0,0,0,0,0,0,0],"sum_hessian":[7.1E1,3.1E1,4E1,2.4E1,7E0,2E1,2E1,6E0,1.8E1,1E0,6E0,9E0,1.1E1,1.4E1,6E0,5E0,1E0,1.3E1,5E0,5E0,1E0,4E0,5E0,2E0,9E0,4E0,1E1,2E0,4E0],"tree_param":{"num_deleted":"0","num_feature":"11","num_nodes":"29","size_leaf_vector":"1"}},{"base_weights":[-5.652915E-2,-3.493691E-1,1.0367554E0,6.440614E-1,-4.440055E0,-8.4114623E-1,8.823652E0,-1.5127747E0,-1.3981272E0,3.8419176E-2,-1.1946027E0,1.4462785E0,3.593623E-1,8.4899294E-1,-3.0688533E-1],"categories":[],"categories_nodes":[],"categories_segments":[],"categories_sizes":[],"default_left":[0,0,0,0,0,0,0,0,0,0,0,0,0,0,0],"id":54,"left_children":[1,3,-1,5,7,9,11,-1,13,-1,-1,-1,-1,-1,-1],"loss_changes":[2.2340843E2,2.9139032E2,0E0,7.120287E2,4.34006E2,6.849511E2,2.1346161E2,0E0,2.2429712E2,0E0,0E0,0E0,0E0,0E0,0E0],"parents":[2147483647,0,0,1,1,3,3,4,4,5,5,6,6,8,8],"right_children":[2,4,-1,6,8,10,12,-1,14,-1,-1,-1,-1,-1,-1],"split_conditions":[6.47726E3,4.4103E5,1.0367554E0,4.09962E5,2.82213E5,4.02596E5,5.61E2,-1.5127747E0,4.776E-1,3.8419176E-2,-1.1946027E0,1.4462785E0,3.593623E-1,8.4899294E-1,-3.0688533E-1],"split_indices":[5,6,0,6,0,6,2,0,8,0,0,0,0,0,0],"split_type":[0,0,0,0,0,0,0,0,0,0,0,0,0,0,0],"sum_hessian":[7.1E1,7E1,1E0,5.7E1,1.3E1,4.9E1,8E0,2E0,1.1E1,4.5E1,4E0,3E0,5E0,1E0,1E1],"tree_param":{"num_deleted":"0","num_feature":"11","num_nodes":"15","size_leaf_vector":"1"}},{"base_weights":[-4.093382E-2,-8.4212446E-1,3.1880713E-1,-1.6954584E0,1.9633633E0,-4.4488764E0,4.8069487E0,4.7743683E0,-3.3973148E0,1.484522E-1,-9.127223E-1,8.27702E-1,-6.048889E-1,8.4906876E-1,4.0491898E-2,-7.213145E-1,2.8926495E-1],"categories":[],"categories_nodes":[],"categories_segments":[],"categories_sizes":[],"default_left":[0,0,0,0,0,0,0,0,0,0,0,0,0,0,0,0,0],"id":55,"left_children":[1,-1,3,5,7,9,11,13,15,-1,-1,-1,-1,-1,-1,-1,-1],"loss_changes":[2.197461E2,0E0,2.352089E2,5.943086E2,6.0390686E2,6.519949E2,4.2677203E2,4.187569E2,3.568852E2,0E0,0E0,0E0,0E0,0E0,0E0,0E0,0E0],"parents":[2147483647,0,0,2,2,3,3,4,4,5,5,6,6,7,7,8,8],"right_children":[2,-1,4,6,8,10,12,14,16,-1,-1,-1,-1,-1,-1,-1,-1],"split_conditions":[1.41E0,-8.4212446E-1,6.369E-1,9.51E2,1.7E0,5.36E2,6.273E-1,5.56E2,1.74E0,1.484522E-1,-9.127223E-1,8.27702E-1,-6.048889E-1,8.4906876E-1,4.0491898E-2,-7.213145E-1,2.8926495E-1],"split_indices":[7,0,9,1,7,2,9,2,7,0,0,0,0,0,0,0,0],"split_type":[0,0,0,0,0,0,0,0,0,0,0,0,0,0,0,0,0],"sum_hessian":[7.1E1,2E0,6.9E1,3.1E1,3.8E1,2.2E1,9E0,2.5E1,1.3E1,1E1,1.2E1,7E0,2E0,1.3E1,1.2E1,8E0,5E0],"tree_param":{"num_deleted":"0","num_feature":"11","num_nodes":"17","size_leaf_vector":"1"}},{"base_weights":[-4.96983E-2,-3.272701E-1,9.828949E-1,2.9816848E-1,-6.088161E0,-1.0745986E0,3.6782677E0,-8.179083E0,-5.739034E-1,-1.7524631E-1,9.451569E-1,1.8079468E0,-1.5192414E-2,1.0030823E-1,-1.0725396E0,1.028595E-1,-1.8894501E-1],"categories":[],"categories_nodes":[],"categories_segments":[],"categories_sizes":[],"default_left":[0,0,0,0,0,0,0,0,0,0,0,0,0,0,0,0,0],"id":56,"left_children":[1,3,-1,5,7,9,11,13,15,-1,-1,-1,-1,-1,-1,-1,-1],"loss_changes":[2.0064314E2,2.5763422E2,0E0,3.0555844E2,7.601517E1,3.519233E2,1.0507745E3,1.2766177E2,8.267963E0,0E0,0E0,0E0,0E0,0E0,0E0,0E0,0E0],"parents":[2147483647,0,0,1,1,3,3,4,4,5,5,6,6,7,7,8,8],"right_children":[2,4,-1,6,8,10,12,14,16,-1,-1,-1,-1,-1,-1,-1,-1],"split_conditions":[6.47726E3,8.3304E1,9.828949E-1,4.25672E3,2.98573E5,9.61E2,4.35497E3,4.785E-1,3.08426E5,-1.7524631E-1,9.451569E-1,1.8079468E0,-1.5192414E-2,1.0030823E-1,-1.0725396E0,1.028595E-1,-1.8894501E-1],"split_indices":[5,10,0,5,0,1,5,8,0,0,0,0,0,0,0,0,0],"split_type":[0,0,0,0,0,0,0,0,0,0,0,0,0,0,0,0,0],"sum_hessian":[7.1E1,7E1,1E0,6.4E1,6E0,4.6E1,1.8E1,4E0,2E0,4.4E1,2E0,3E0,1.5E1,1E0,3E0,1E0,1E0],"tree_param":{"num_deleted":"0","num_feature":"11","num_nodes":"17","size_leaf_vector":"1"}},{"base_weights":[-1.018948E-2,-7.7430015E0,3.2136232E-1,-9.293076E-1,-2.3214264E-1,5.2309303E0,-3.071759E-1,-2.1105957E-1,8.029872E0,-9.360565E0,1.4310843E-1,2.6340792E-1,1.2547638E0,-1.3426377E0,-6.1447144E-2,9.3109894E-1,-4.9162664E-2],"categories":[],"categories_nodes":[],"categories_segments":[],"categories_sizes":[],"default_left":[0,0,0,0,0,0,0,0,0,0,0,0,0,0,0,0,0],"id":57,"left_children":[1,3,5,-1,-1,7,9,-1,11,13,15,-1,-1,-1,-1,-1,-1],"loss_changes":[1.8708388E2,3.6383514E0,2.176164E2,0E0,0E0,1.8133582E2,2.581653E2,0E0,1.1321011E2,9.842978E1,3.5954724E2,0E0,0E0,0E0,0E0,0E0,0E0],"parents":[2147483647,0,0,1,1,2,2,5,5,6,6,8,8,9,9,10,10],"right_children":[2,4,6,-1,-1,8,10,-1,12,14,16,-1,-1,-1,-1,-1,-1],"split_conditions":[1.41E0,2.16215E5,5.6379E1,-9.293076E-1,-2.3214264E-1,1.54E0,5.67864E1,-2.1105957E-1,5.39026E1,2.5234E5,5.76113E1,2.6340792E-1,1.2547638E0,-1.3426377E0,-6.1447144E-2,9.3109894E-1,-4.9162664E-2],"split_indices":[7,0,10,0,0,7,10,0,10,0,10,0,0,0,0,0,0],"split_type":[0,0,0,0,0,0,0,0,0,0,0,0,0,0,0,0,0],"sum_hessian":[7.1E1,2E0,6.9E1,1E0,1E0,7E0,6.2E1,2E0,5E0,2E0,6E1,3E0,2E0,1E0,1E0,3E0,5.7E1],"tree_param":{"num_deleted":"0","num_feature":"11","num_nodes":"17","size_leaf_vector":"1"}},{"base_weights":[-1.4405568E-2,-5.281779E-1,4.8317914E0,4.4085073E-1,-7.6087418E0,9.706985E0,-1.2513504E0,-9.833731E-1,5.556056E0,-1.1413406E0,-3.0432618E0,2.368164E-1,1.1363872E0,1.7403056E-1,-5.1131594E-1,-2.0989297E-2,-9.2458117E-1,1.6760377E0,5.1872253E-2,1.319509E-1,-6.3916117E-1],"categories":[],"categories_nodes":[],"categories_segments":[],"categories_sizes":[],"default_left":[0,0,0,0,0,0,0,0,0,0,0,0,0,0,0,0,0,0,0,0,0],"id":58,"left_children":[1,3,5,7,9,11,13,15,17,-1,19,-1,-1,-1,-1,-1,-1,-1,-1,-1,-1],"loss_changes":[1.8182066E2,4.561981E2,2.1974234E2,4.352903E2,1.0422693E2,2.1726837E1,5.5111275E1,2.9842847E2,7.2502466E2,0E0,8.147421E1,0E0,0E0,0E0,0E0,0E0,0E0,0E0,0E0,0E0,0E0],"parents":[2147483647,0,0,1,1,2,2,3,3,4,4,5,5,6,6,7,7,8,8,10,10],"right_children":[2,4,6,8,10,12,14,16,18,-1,20,-1,-1,-1,-1,-1,-1,-1,-1,-1,-1],"split_conditions":[9.97E2,4.72004E3,1.024E3,4.25672E3,8.56189E1,5.3E2,8.579E-1,5.36E-1,4.35497E3,-1.1413406E0,9.6E2,2.368164E-1,1.1363872E0,1.7403056E-1,-5.1131594E-1,-2.0989297E-2,-9.2458117E-1,1.6760377E0,5.1872253E-2,1.319509E-1,-6.3916117E-1],"split_indices":[1,5,1,5,10,2,8,8,5,0,1,0,0,0,0,0,0,0,0,0,0],"split_type":[0,0,0,0,0,0,0,0,0,0,0,0,0,0,0,0,0,0,0,0,0],"sum_hessian":[7.1E1,6.5E1,6E0,5.8E1,7E0,3E0,3E0,4.6E1,1.2E1,3E0,4E0,1E0,2E0,2E0,1E0,4.3E1,3E0,3E0,9E0,2E0,2E0],"tree_param":{"num_deleted":"0","num_feature":"11","num_nodes":"21","size_leaf_vector":"1"}},{"base_weights":[-1.0605706E-2,-1.590282E0,1.5266633E0,-3.3748582E-1,-1.5258545E0,7.6489687E0,-7.1439797E-1,-1.1622518E0,1.3439896E0,1.1270835E1,-6.015396E-1,1.1921944E1,-2.7076368E0,-2.9197693E-2,-1.4505523E0,1.2227783E-1,1.2741715E0,-2.3018901E-1,2.2497559E-1,3.495407E-1,1.3565654E0,-8.860993E-1,1.776123E-2],"categories":[],"categories_nodes":[],"categories_segments":[],"categories_sizes":[],"default_left":[0,0,0,0,0,0,0,0,0,0,0,0,0,0,0,0,0,0,0,0,0,0,0],"id":59,"left_children":[1,3,5,7,-1,9,11,13,-1,15,17,19,21,-1,-1,-1,-1,-1,-1,-1,-1,-1,-1],"loss_changes":[1.7727171E2,6.1129816E2,5.1312146E2,4.0196646E2,0E0,3.0560223E2,7.3752313E2,3.789711E2,0E0,8.787604E1,2.4571499E1,7.9856567E0,4.454229E2,0E0,0E0,0E0,0E0,0E0,0E0,0E0,0E0,0E0,0E0],"parents":[2147483647,0,0,1,1,2,2,3,3,5,5,6,6,7,7,9,9,10,10,11,11,12,12],"right_children":[2,4,6,8,-1,10,12,14,-1,16,18,20,22,-1,-1,-1,-1,-1,-1,-1,-1,-1,-1],"split_conditions":[2.46819E5,2.45033E5,4.02164E5,2.44762E5,-1.5258545E0,6.762E-1,6.179E-1,2.4093E5,1.3439896E0,2.47621E5,2.63842E5,2.50181E5,5.071E-1,-2.9197693E-2,-1.4505523E0,1.2227783E-1,1.2741715E0,-2.3018901E-1,2.2497559E-1,3.495407E-1,1.3565654E0,-8.860993E-1,1.776123E-2],"split_indices":[0,0,6,0,0,9,9,0,0,0,0,0,8,0,0,0,0,0,0,0,0,0,0],"split_type":[0,0,0,0,0,0,0,0,0,0,0,0,0,0,0,0,0,0,0,0,0,0,0],"sum_hessian":[7.1E1,3.5E1,3.6E1,3.3E1,2E0,9E0,2.7E1,3.2E1,1E0,6E0,3E0,3E0,2.4E1,3.1E1,1E0,1E0,5E0,2E0,1E0,1E0,2E0,7E0,1.7E1],"tree_param":{"num_deleted":"0","num_feature":"11","num_nodes":"23","size_leaf_vector":"1"}},{"base_weights":[-1.6640557E-3,-7.3223777E0,3.1210458E-1,-8.8033146E-1,-2.1802521E-1,5.72111E0,-1.9198984E-1,1.7581726E0,1.2767899E0,-2.1524832E0,1.4470876E0,2.9592693E-1,-2.8981527E-3,2.114789E-2,-1.7571106E0,1.0181257E0,3.715229E-3],"categories":[],"categories_nodes":[],"categories_segments":[],"categories_sizes":[],"default_left":[0,0,0,0,0,0,0,0,0,0,0,0,0,0,0,0,0],"id":60,"left_children":[1,3,5,-1,-1,7,9,11,-1,13,15,-1,-1,-1,-1,-1,-1],"loss_changes":[1.6767009E2,3.6520538E0,1.9196385E2,0E0,0E0,1.451077E2,2.1198587E2,1.0818487E1,0E0,1.0971871E3,4.4294785E2,0E0,0E0,0E0,0E0,0E0,0E0],"parents":[2147483647,0,0,1,1,2,2,5,5,6,6,7,7,9,9,10,10],"right_children":[2,4,6,-1,-1,8,10,12,-1,14,16,-1,-1,-1,-1,-1,-1],"split_conditions":[1.41E0,2.16215E5,5.49081E1,-8.8033146E-1,-2.1802521E-1,5.49E2,2.46819E5,5.013E-1,1.2767899E0,2.4093E5,9.01E2,2.9592693E-1,-2.8981527E-3,2.114789E-2,-1.7571106E0,1.0181257E0,3.715229E-3],"split_indices":[7,0,10,0,0,2,0,8,0,0,1,0,0,0,0,0,0],"split_type":[0,0,0,0,0,0,0,0,0,0,0,0,0,0,0,0,0],"sum_hessian":[7.1E1,2E0,6.9E1,1E0,1E0,5E0,6.4E1,4E0,1E0,2.9E1,3.5E1,2E0,2E0,2.6E1,3E0,4E0,3.1E1],"tree_param":{"num_deleted":"0","num_feature":"11","num_nodes":"17","size_leaf_vector":"1"}},{"base_weights":[-4.8688254E-3,-1.6901712E0,1.3106079E0,2.732361E-1,-7.6145477E0,4.425088E0,-1.8662821E0,-6.795166E0,2.8630035E0,-1.5379639E0,-4.308158E0,-3.2756755E0,5.4080987E0,4.977002E0,-3.7692316E0,-8.864884E-1,2.8115693E-1,-9.269213E-2,1.1228994E0,-5.436605E-1,1.2312622E-1,1.2860413E-1,-6.199555E-1,1.0989059E0,2.6299655E-1,-3.040263E-1,1.1335267E0,-7.768311E-1,6.486511E-2],"categories":[],"categories_nodes":[],"categories_segments":[],"categories_sizes":[],"default_left":[0,0,0,0,0,0,0,0,0,0,0,0,0,0,0,0,0,0,0,0,0,0,0,0,0,0,0,0,0],"id":61,"left_children":[1,3,5,7,9,11,13,15,17,-1,19,21,23,25,27,-1,-1,-1,-1,-1,-1,-1,-1,-1,-1,-1,-1,-1,-1],"loss_changes":[1.6183743E2,3.7430344E2,4.1392728E2,4.7709247E2,1.3913739E2,1.7668375E2,2.9223035E2,1.6410684E2,6.128314E2,0E0,5.0450485E1,4.7986607E1,2.656875E2,2.8934158E2,3.053858E2,0E0,0E0,0E0,0E0,0E0,0E0,0E0,0E0,0E0,0E0,0E0,0E0,0E0,0E0],"parents":[2147483647,0,0,1,1,2,2,3,3,4,4,5,5,6,6,7,7,8,8,10,10,11,11,12,12,13,13,14,14],"right_children":[2,4,6,8,10,12,14,16,18,-1,20,22,24,26,28,-1,-1,-1,-1,-1,-1,-1,-1,-1,-1,-1,-1,-1,-1],"split_conditions":[1.62E0,1.6E0,1.71E0,6.225E-1,6.04797E1,3.65893E5,6.179E-1,1.57E0,1.54E0,-1.5379639E0,2.98573E5,2.04028E5,8.93E2,2.27539E5,1.74E0,-8.864884E-1,2.8115693E-1,-9.269213E-2,1.1228994E0,-5.436605E-1,1.2312622E-1,1.2860413E-1,-6.199555E-1,1.0989059E0,2.6299655E-1,-3.040263E-1,1.1335267E0,-7.768311E-1,6.486511E-2],"split_indices":[7,7,7,9,10,6,9,7,7,0,0,0,1,0,7,0,0,0,0,0,0,0,0,0,0,0,0,0,0],"split_type":[0,0,0,0,0,0,0,0,0,0,0,0,0,0,0,0,0,0,0,0,0,0,0,0,0,0,0,0,0],"sum_hessian":[7.1E1,3.1E1,4E1,2.4E1,7E0,2E1,2E1,6E0,1.8E1,1E0,6E0,2E0,1.8E1,4E0,1.6E1,5E0,1E0,1.3E1,5E0,5E0,1E0,1E0,1E0,5E0,1.3E1,2E0,2E0,8E0,8E0],"tree_param":{"num_deleted":"0","num_feature":"11","num_nodes":"29","size_leaf_vector":"1"}},{"base_weights":[-1.1962043E-2,-2.558379E-1,8.651611E-1,3.4156775E-1,-4.4092507E0,-4.5333272E-1,6.7655334E0,6.694946E-1,-5.955963E0,-7.510468E-1,7.7813044E-3,1.0065882E0,-9.902242E-2,-1.0987244E-1,2.1029663E-1,-7.3385215E-1,1.169693E-1],"categories":[],"categories_nodes":[],"categories_segments":[],"categories_sizes":[],"default_left":[0,0,0,0,0,0,0,0,0,0,0,0,0,0,0,0,0],"id":62,"left_children":[1,3,-1,5,7,9,11,13,15,-1,-1,-1,-1,-1,-1,-1,-1],"loss_changes":[1.5433763E2,1.7767639E2,0E0,3.2477106E2,7.4685684E1,2.1424136E2,1.8914435E2,9.914656E0,7.754527E1,0E0,0E0,0E0,0E0,0E0,0E0,0E0,0E0],"parents":[2147483647,0,0,1,1,3,3,4,4,5,5,6,6,7,7,8,8],"right_children":[2,4,-1,6,8,10,12,14,16,-1,-1,-1,-1,-1,-1,-1,-1],"split_conditions":[6.47726E3,6.836E-1,8.651611E-1,6.733E-1,5.55E2,1.45E0,1.69E0,2.63842E5,5.35354E5,-7.510468E-1,7.7813044E-3,1.0065882E0,-9.902242E-2,-1.0987244E-1,2.1029663E-1,-7.3385215E-1,1.169693E-1],"split_indices":[5,9,0,9,2,7,7,0,0,0,0,0,0,0,0,0,0],"split_type":[0,0,0,0,0,0,0,0,0,0,0,0,0,0,0,0,0],"sum_hessian":[7.1E1,7E1,1E0,6.2E1,8E0,5.6E1,6E0,2E0,6E0,3E0,5.3E1,4E0,2E0,1E0,1E0,5E0,1E0],"tree_param":{"num_deleted":"0","num_feature":"11","num_nodes":"17","size_leaf_vector":"1"}},{"base_weights":[-3.6354065E-3,-2.3520844E-1,8.2190245E-1,2.7751794E-1,-4.962638E0,-8.280646E-1,2.997774E0,1.2173462E-1,-6.195526E0,-1.3854717E-1,7.8090614E-1,9.166029E-1,-2.3215055E-1,-8.965874E-1,-4.3655396E-2],"categories":[],"categories_nodes":[],"categories_segments":[],"categories_sizes":[],"default_left":[0,0,0,0,0,0,0,0,0,0,0,0,0,0,0],"id":63,"left_children":[1,3,-1,5,7,9,11,-1,13,-1,-1,-1,-1,-1,-1],"loss_changes":[1.3903172E2,1.7347253E2,0E0,1.9796773E2,6.0876724E1,2.3709576E2,6.4468176E2,0E0,9.181206E1,0E0,0E0,0E0,0E0,0E0,0E0],"parents":[2147483647,0,0,1,1,3,3,4,4,5,5,6,6,8,8],"right_children":[2,4,-1,6,8,10,12,-1,14,-1,-1,-1,-1,-1,-1],"split_conditions":[6.47726E3,8.3304E1,8.2190245E-1,4.25672E3,4.785E-1,9.61E2,5.66E2,1.2173462E-1,2.98573E5,-1.3854717E-1,7.8090614E-1,9.166029E-1,-2.3215055E-1,-8.965874E-1,-4.3655396E-2],"split_indices":[5,10,0,5,8,1,2,0,0,0,0,0,0,0,0],"split_type":[0,0,0,0,0,0,0,0,0,0,0,0,0,0,0],"sum_hessian":[7.1E1,7E1,1E0,6.4E1,6E0,4.6E1,1.8E1,1E0,5E0,4.4E1,2E0,8E0,1E1,3E0,2E0],"tree_param":{"num_deleted":"0","num_feature":"11","num_nodes":"15","size_leaf_vector":"1"}},{"base_weights":[1.5202416E-2,-7.872009E-1,2.3716328E-1,5.272822E0,-2.2421727E-1,1.6740112E0,1.1633438E0,-1.8937151E0,1.2196342E0,-4.1619875E-2,2.3006134E-1,1.37993945E-2,-1.5642251E0,1.0372094E0,7.328658E-3],"categories":[],"categories_nodes":[],"categories_segments":[],"categories_sizes":[],"default_left":[0,0,0,0,0,0,0,0,0,0,0,0,0,0,0],"id":64,"left_children":[1,-1,3,5,7,9,-1,11,13,-1,-1,-1,-1,-1,-1],"loss_changes":[1.2791392E2,0E0,1.6614046E2,1.17869415E2,1.6140309E2,7.5061626E0,0E0,8.680823E2,3.7694824E2,0E0,0E0,0E0,0E0,0E0,0E0],"parents":[2147483647,0,0,2,2,3,3,4,4,5,5,7,7,8,8],"right_children":[2,-1,4,6,8,10,-1,12,14,-1,-1,-1,-1,-1,-1],"split_conditions":[1.37E0,-7.872009E-1,5.49081E1,5.49E2,2.46819E5,7.55E2,1.1633438E0,2.4093E5,6.179E-1,-4.1619875E-2,2.3006134E-1,1.37993945E-2,-1.5642251E0,1.0372094E0,7.328658E-3],"split_indices":[7,0,10,2,0,1,0,0,9,0,0,0,0,0,0],"split_type":[0,0,0,0,0,0,0,0,0,0,0,0,0,0,0],"sum_hessian":[7.1E1,1E0,7E1,5E0,6.5E1,4E0,1E0,3E1,3.5E1,1E0,3E0,2.7E1,3E0,3E0,3.2E1],"tree_param":{"num_deleted":"0","num_feature":"11","num_nodes":"15","size_leaf_vector":"1"}},{"base_weights":[1.45026315E-2,-2.0513572E-1,7.804413E-1,4.5112863E-1,-3.469363E0,-5.90816E-1,5.1462293E0,4.700216E0,-5.5733004E0,3.6915656E-2,-9.3044007E-1,1.0331894E0,1.9101182E-1,1.15283206E-1,5.8974916E-1,-1.07977E0,-1.7917436E-1],"categories":[],"categories_nodes":[],"categories_segments":[],"categories_sizes":[],"default_left":[0,0,0,0,0,0,0,0,0,0,0,0,0,0,0,0,0],"id":65,"left_children":[1,3,-1,5,7,9,11,13,15,-1,-1,-1,-1,-1,-1,-1,-1],"loss_changes":[1.247903E2,1.5366104E2,0E0,2.965626E2,2.3245511E2,4.216749E2,1.648601E2,5.942772E0,1.7821686E2,0E0,0E0,0E0,0E0,0E0,0E0,0E0,0E0],"parents":[2147483647,0,0,1,1,3,3,4,4,5,5,6,6,7,7,8,8],"right_children":[2,4,-1,6,8,10,12,14,16,-1,-1,-1,-1,-1,-1,-1,-1],"split_conditions":[6.47726E3,4.72004E3,7.804413E-1,4.09962E5,4.785E-1,4.02596E5,5.61E2,2.64632E5,2.98573E5,3.6915656E-2,-9.3044007E-1,1.0331894E0,1.9101182E-1,1.15283206E-1,5.8974916E-1,-1.07977E0,-1.7917436E-1],"split_indices":[5,5,0,6,8,6,2,0,0,0,0,0,0,0,0,0,0],"split_type":[0,0,0,0,0,0,0,0,0,0,0,0,0,0,0,0,0],"sum_hessian":[7.1E1,7E1,1E0,5.9E1,1.1E1,4.9E1,1E1,2E0,9E0,4.5E1,4E0,3E0,7E0,1E0,1E0,3E0,6E0],"tree_param":{"num_deleted":"0","num_feature":"11","num_nodes":"17","size_leaf_vector":"1"}},{"base_weights":[2.0783743E-2,-7.496872E-1,2.3225597E-1,-1.3686943E0,1.5072098E0,-5.0978155E0,1.4511156E0,1.0172348E1,5.2970266E-1,-6.071442E-2,-1.3059596E0,3.2518777E-1,-4.241394E-1,-2.2469483E-1,1.5061096E0,3.929753E-1,-1.475731E-1],"categories":[],"categories_nodes":[],"categories_segments":[],"categories_sizes":[],"default_left":[0,0,0,0,0,0,0,0,0,0,0,0,0,0,0,0,0],"id":66,"left_children":[1,-1,3,5,7,9,11,13,15,-1,-1,-1,-1,-1,-1,-1,-1],"loss_changes":[1.1620502E2,0E0,1.4698369E2,3.4389072E2,3.3342105E2,4.9262314E2,2.0855875E2,2.767007E2,2.5808652E2,0E0,0E0,0E0,0E0,0E0,0E0,0E0,0E0],"parents":[2147483647,0,0,2,2,3,3,4,4,5,5,6,6,7,7,8,8],"right_children":[2,-1,4,6,8,10,12,14,16,-1,-1,-1,-1,-1,-1,-1,-1],"split_conditions":[1.37E0,-7.496872E-1,6.369E-1,3.93296E3,6.401E-1,2.27303E5,2.72651E5,2.14697E5,3.95585E3,-6.071442E-2,-1.3059596E0,3.2518777E-1,-4.241394E-1,-2.2469483E-1,1.5061096E0,3.929753E-1,-1.475731E-1],"split_indices":[7,0,9,5,9,0,0,0,5,0,0,0,0,0,0,0,0],"split_type":[0,0,0,0,0,0,0,0,0,0,0,0,0,0,0,0,0],"sum_hessian":[7.1E1,1E0,7E1,3.1E1,3.9E1,1.3E1,1.8E1,3E0,3.6E1,9E0,4E0,1.4E1,4E0,1E0,2E0,1.3E1,2.3E1],"tree_param":{"num_deleted":"0","num_feature":"11","num_nodes":"17","size_leaf_vector":"1"}},{"base_weights":[9.140862E-3,-4.102358E-1,3.9619577E0,3.142819E-1,-5.7022743E0,5.9013214E0,-3.8371125E-1,-6.8209404E-1,4.724113E0,-8.77697E-1,-2.102063E0,7.4469147E0,1.8734233E-1,1.6953057E-2,-8.2102966E-1,8.628296E-1,1.2605374E-1,1.3708395E-1,-4.8742777E-1,1.591156E-1,8.8684493E-1],"categories":[],"categories_nodes":[],"categories_segments":[],"categories_sizes":[],"default_left":[0,0,0,0,0,0,0,0,0,0,0,0,0,0,0,0,0,0,0,0,0],"id":67,"left_children":[1,3,5,7,9,11,-1,13,15,-1,17,19,-1,-1,-1,-1,-1,-1,-1,-1,-1],"loss_changes":[1.209811E2,2.5484772E2,1.2852068E2,2.624594E2,7.010669E1,2.3401733E1,0E0,3.1554083E2,1.3787048E2,0E0,5.4820007E1,1.9185562E1,0E0,0E0,0E0,0E0,0E0,0E0,0E0,0E0,0E0],"parents":[2147483647,0,0,1,1,2,2,3,3,4,4,5,5,7,7,8,8,10,10,11,11],"right_children":[2,4,6,8,10,12,-1,14,16,-1,18,20,-1,-1,-1,-1,-1,-1,-1,-1,-1],"split_conditions":[9.97E2,4.72004E3,8.579E-1,4.09962E5,8.56189E1,1.024E3,-3.8371125E-1,4.02596E5,5.65E2,-8.77697E-1,9.6E2,5.3E2,1.8734233E-1,1.6953057E-2,-8.2102966E-1,8.628296E-1,1.2605374E-1,1.3708395E-1,-4.8742777E-1,1.591156E-1,8.8684493E-1],"split_indices":[1,5,8,6,10,1,0,6,2,0,1,2,0,0,0,0,0,0,0,0,0],"split_type":[0,0,0,0,0,0,0,0,0,0,0,0,0,0,0,0,0,0,0,0,0],"sum_hessian":[7.1E1,6.5E1,6E0,5.8E1,7E0,5E0,1E0,4.8E1,1E1,3E0,4E0,3E0,2E0,4.4E1,4E0,4E0,6E0,2E0,2E0,1E0,2E0],"tree_param":{"num_deleted":"0","num_feature":"11","num_nodes":"21","size_leaf_vector":"1"}},{"base_weights":[5.525801E-3,-2.5109599E0,6.5624577E-1,1.0827986E0,-5.0271096E0,8.837524E0,-2.8231868E-1,3.7930807E-1,-7.5993043E-1,-1.0368144E-1,-6.019078E0,2.261322E-1,9.7005004E-1,-4.966194E0,1.0626533E0,-1.4242478E-1,9.486695E-2,-6.418778E-1,-1.8104401E-1,1.1609192E-1,-7.137556E-1,7.281347E-1,2.54962E-3],"categories":[],"categories_nodes":[],"categories_segments":[],"categories_sizes":[],"default_left":[0,0,0,0,0,0,0,0,0,0,0,0,0,0,0,0,0,0,0,0,0,0,0],"id":68,"left_children":[1,3,5,7,9,11,13,-1,15,-1,17,-1,-1,19,21,-1,-1,-1,-1,-1,-1,-1,-1],"loss_changes":[1.195498E2,1.4107986E2,4.4785718E2,3.7842686E1,2.938356E1,1.2114624E1,3.3916043E2,0E0,7.0264034E0,0E0,1.5452576E-1,0E0,0E0,1.6793631E2,2.7070438E2,0E0,0E0,0E0,0E0,0E0,0E0,0E0,0E0],"parents":[2147483647,0,0,1,1,2,2,3,3,4,4,5,5,6,6,8,8,10,10,13,13,14,14],"right_children":[2,4,6,8,10,12,14,-1,16,-1,18,-1,-1,20,22,-1,-1,-1,-1,-1,-1,-1,-1],"split_conditions":[2.16562E5,3.26971E5,2.27303E5,7.53E2,5.25E2,3.44275E3,3.79199E5,3.7930807E-1,4.97E2,-1.0368144E-1,2.16215E5,2.261322E-1,9.7005004E-1,3.86049E3,3.90587E5,-1.4242478E-1,9.486695E-2,-6.418778E-1,-1.8104401E-1,1.1609192E-1,-7.137556E-1,7.281347E-1,2.54962E-3],"split_indices":[0,6,0,1,2,5,6,0,2,0,0,0,0,5,6,0,0,0,0,0,0,0,0],"split_type":[0,0,0,0,0,0,0,0,0,0,0,0,0,0,0,0,0,0,0,0,0,0,0],"sum_hessian":[7.1E1,1.4E1,5.7E1,6E0,8E0,5E0,5.2E1,2E0,4E0,2E0,6E0,1E0,4E0,1.1E1,4.1E1,3E0,1E0,5E0,1E0,3E0,8E0,5E0,3.6E1],"tree_param":{"num_deleted":"0","num_feature":"11","num_nodes":"23","size_leaf_vector":"1"}},{"base_weights":[1.5163422E-2,-1.2197045E0,1.2162467E0,9.215558E-1,-5.078977E0,5.801416E0,-4.647511E-1,-7.491136E-1,1.2865947E0,-9.4824895E-2,-1.3034656E1,8.747297E0,-8.0422974E-1,8.613266E0,-1.8986439E0,2.117743E-1,-6.030831E-1,4.2575988E-1,-1.9466029E-1,-3.1378326E-1,-1.4724404E0,4.7067262E-2,1.0048289E0,-2.0791829E-1,1.510315E-1,1.8953553E-1,1.0220784E0,-6.549737E-1,6.7538455E-2],"categories":[],"categories_nodes":[],"categories_segments":[],"categories_sizes":[],"default_left":[0,0,0,0,0,0,0,0,0,0,0,0,0,0,0,0,0,0,0,0,0,0,0,0,0,0,0,0,0],"id":69,"left_children":[1,3,5,7,9,11,13,15,-1,17,19,21,23,25,27,-1,-1,-1,-1,-1,-1,-1,-1,-1,-1,-1,-1,-1,-1],